svm_type c_svc
kernel_type rbf
gamma 0.166667
nr_class 2
total_sv 3651
rho -0.570681
label 1 0
probA -2.62688
probB 0.213374
nr_sv 1901 1750
SV
0.1126840901527272 1:0.0041666667 2:0 3:0 4:4 5:0 6:146 
1 1:0.0041666667 2:0 3:0 4:2 5:0 6:19 
0.429109245902953 1:0.0041666667 2:0 3:0 4:7 5:0 6:444 
0.2527510670880561 1:0.0125 2:0 3:0 4:8 5:0 6:809 
0.2980654346381477 1:0.0041666667 2:0 3:0 4:3 5:0.26726124 6:56 
0.4289716992505087 1:0.0041666667 2:0 3:0 4:3 5:0 6:800 
0.007747065490460113 1:0.0083333333 2:0 3:0 4:2 5:0 6:190 
0.2888102207495141 1:0.045833333 2:0 3:0 4:2 5:0 6:45 
1 1:0.1375 2:0 3:0 4:1 5:0 6:17 
0.4290349697453814 1:0.0041666667 2:0 3:0 4:2 5:0 6:2496 
0.7023699845614617 1:0.0083333333 2:0 3:0 4:4 5:0 6:129 
1 1:0.0041666667 2:0 3:0 4:1 5:0.26726124 6:4 
1 1:0.0125 2:0.20412415 3:0 4:2 5:0 6:2 
0.3472639954196675 1:0.0041666667 2:0 3:0 4:7 5:0 6:242 
0.4292223871945389 1:0.0083333333 2:0.375 3:0 4:3 5:0 6:700 
0.429228206292892 1:0.0083333333 2:0.23570226 3:0 4:1 5:0 6:503 
1 1:0.020833333 2:0.5 3:0 4:1 5:0.40824829 6:147 
1 1:0.0041666667 2:0.13363062 3:0 4:2 5:0 6:4 
0.1267527465831058 1:0.0041666667 2:0.14285714 3:0 4:3 5:0 6:25 
0.3852984131998851 1:0.033333333 2:0.18257419 3:0 4:10 5:0 6:1179 
0.2022956622833819 1:0.0041666667 2:0.25819889 3:0 4:4 5:0 6:245 
0.4294148991876351 1:0.0083333333 2:0 3:0 4:9 5:0 6:1595 
0.4291187499224114 1:0.033333333 2:0 3:0 4:1 5:0 6:474 
1 1:0.041666667 2:0.18257419 3:0 4:0 5:0 6:58 
0.4297703731799816 1:0.0041666667 2:0 3:0 4:11 5:0 6:1486 
0.4285654757478733 1:0.0041666667 2:0.28867513 3:0 4:3 5:0 6:929 
0.4292522274532428 1:0.0041666667 2:0 3:0 4:24 5:0 6:538 
1 1:0.041666667 2:0 3:0 4:4 5:0 6:4 
1 1:0.1375 2:0.13363062 3:0 4:5 5:0 6:3 
1 1:0.1375 2:0 3:0 4:2 5:0 6:21 
0.2378516203744727 1:0.0041666667 2:0 3:0 4:1 5:0 6:174 
1 1:0.045553145 2:1 3:0 4:0 5:0 6:1 
1 1:0.04989154 2:0 3:0 4:5 5:0 6:51 
1 1:0.0045191612 2:0 3:0 4:2 5:0 6:3 
1 1:0.045553145 2:0 3:0 4:1 5:0 6:3 
1 1:9.0383225e-05 2:0 3:0.099053606 4:3 5:0 6:5 
1 1:9.0383225e-05 2:0 3:0 4:4 5:0 6:8 
1 1:9.0383225e-05 2:0.20412415 3:0 4:4 5:0 6:11 
1 1:0.00027114967 2:0 3:0 4:0 5:0 6:27 
0.4292758868168909 1:0.0018076645 2:0 3:0.1112373 4:14 5:0 6:1211 
0.2991680258378733 1:0.017986262 2:0 3:0.046524211 4:2 5:0 6:402 
0.2850811658745168 1:9.0383225e-05 2:0 3:0 4:8 5:0 6:112 
1 1:9.0383225e-05 2:0 3:0 4:2 5:0 6:2 
1 1:9.0383225e-05 2:0 3:0 4:4 5:0 6:1 
1 1:0.00079365079 2:0.35355339 3:0 4:8 5:0 6:51 
1 1:0.011461318 2:0 3:0 4:13 5:1 6:11 
1 1:0.011461318 2:0 3:0.025785531 4:13 5:0 6:15 
0.4290908589467521 1:0.027507163 2:0 3:0 4:38 5:0 6:79 
0.4291951500065626 1:0.027507163 2:0 3:0 4:36 5:0 6:717 
0.4331594630379201 1:0.027507163 2:0 3:0.035377457 4:34 5:0 6:85 
1 1:0.027507163 2:0 3:0 4:31 5:0 6:13 
0.4285185672560923 1:0.011461318 2:0 3:0 4:36 5:0 6:46 
1 1:0.0047755492 2:0 3:0 4:2 5:0 6:1 
1 1:0.0047755492 2:0 3:0 4:1 5:0 6:6 
1 1:0.0066857689 2:0 3:0.039787938 4:1 5:0 6:4 
1 1:0.00019102197 2:0 3:0.078645133 4:5 5:0 6:8 
0.4290200444266692 1:0.00019102197 2:0 3:0 4:37 5:0 6:72 
1 1:0.0003968254 2:0 3:0 4:17 5:0 6:7 
0.4285639477245588 1:0.01031746 2:0.18257419 3:0.20916501 4:14 5:0 6:976 
0.2007119851961471 1:0.0003968254 2:0 3:0 4:7 5:0 6:260 
1 1:0.0003968254 2:0.27216553 3:0.036162956 4:11 5:0 6:13 
0.300201062558243 1:0.0051587302 2:0 3:0.17195436 4:18 5:0 6:378 
1 1:0.0011904762 2:0.14433757 3:0.1303625 4:9 5:0 6:7 
1 1:0.0015873016 2:0 3:0.026499947 4:2 5:0 6:18 
1 1:0.003968254 2:0 3:0 4:12 5:0 6:154 
0.4212748000897198 1:0.0051587302 2:0 3:0 4:9 5:0 6:207 
0.1663662863417125 1:0.0051587302 2:0.15811388 3:0 4:6 5:0 6:196 
0.301648840792878 1:0.0051587302 2:0 3:0 4:5 5:0 6:513 
0.5140673403987982 1:0.003968254 2:0 3:0.12148858 4:4 5:0 6:34 
0.104126708140702 1:0.01031746 2:0 3:0.060245337 4:10 5:0 6:218 
1 1:0.0003968254 2:0 3:0 4:4 5:0 6:12 
1 1:0.0003968254 2:0 3:0.14494276 4:5 5:0 6:15 
0.5961129394549729 1:0.0003968254 2:0 3:0 4:30 5:0 6:44 
1 1:0.0011904762 2:0 3:0.084988905 4:5 5:0 6:30 
1 1:0.024450812 2:0.2 3:0 4:12 5:0 6:15 
0.4012395232324879 1:0.027507163 2:0.2 3:0 4:10 5:0 6:461 
1 1:0.050238777 2:0 3:0 4:9 5:0 6:14 
1 1:0.0028653295 2:0 3:0 4:7 5:0 6:21 
0.1785561633822934 1:0.0028653295 2:0.63245553 3:0 4:7 5:0 6:99 
1 1:0.050238777 2:0 3:0 4:3 5:0 6:15 
1 1:0.0019102197 2:0.4472136 3:0 4:3 5:0 6:8 
0.355214313211688 1:0.017000955 2:0.51639778 3:0.19245009 4:0 5:0.5 6:98 
1 1:0.00095510984 2:0.2236068 3:0 4:1 5:0.5 6:41 
1 1:0.00038204394 2:0.2 3:0.11228692 4:2 5:0 6:27 
1 1:0.0005730659 2:0.2236068 3:0.30949223 4:1 5:0 6:7 
0.3426211841464895 1:0.050238777 2:0.2236068 3:0 4:14 5:0 6:86 
0.392828906007614 1:0.0019102197 2:0 3:0 4:13 5:0 6:966 
1 1:0.050238777 2:0.25819889 3:0 4:10 5:0 6:19 
0.6489448771166529 1:0.00019102197 2:0 3:0 4:9 5:0 6:122 
1 1:0.050238777 2:0.36514837 3:0 4:9 5:0 6:40 
0.4033743288031327 1:0.00019102197 2:0 3:0 4:8 5:0 6:4399 
0.4287407434111283 1:0.00019102197 2:0 3:0 4:5 5:0 6:649 
1 1:0.0080229226 2:0.1490712 3:0 4:3 5:0 6:15 
0.01091343240139618 1:0.029990449 2:0.25819889 3:0 4:2 5:0.70710678 6:52 
0.2320551870747079 1:0.011461318 2:0 3:0 4:18 5:0 6:1337 
1 1:0.0011461318 2:0.25819889 3:0 4:7 5:0 6:27 
0.1360384811183623 1:0.0066857689 2:0.2236068 3:0 4:2 5:0.70710678 6:13 
1 1:0.0066857689 2:0 3:0 4:2 5:0 6:6 
0.3955856491192428 1:0.017028628 2:0.56694671 3:0 4:7 5:0 6:674 
1 1:0.037265548 2:0.18898224 3:0.1538588 4:6 5:0 6:86 
0.1168349469725881 1:0.017028628 2:0 3:0 4:6 5:0 6:185 
0.4295924753551585 1:0.0051826259 2:0 3:0.088636004 4:6 5:0 6:1310 
0.6072937079352492 1:0.0046890424 2:0 3:0 4:5 5:0 6:45 
0.3004791460596205 1:0.017028628 2:0.12598816 3:0.21196237 4:4 5:0 6:403 
0.0833090365474685 1:0.031342547 2:0.18898224 3:0.23695935 4:1 5:0 6:87 
1 1:0.017028628 2:0 3:0.19777216 4:1 5:0 6:56 
0.07733408461821724 1:0.017028628 2:0.65465367 3:0.19114103 4:1 5:0 6:49 
0.4289072155932565 1:0.0012845765 2:0 3:0 4:18 5:0 6:3089 
1 1:0.052667637 2:0 3:0 4:8 5:0 6:34 
1 1:0.052667637 2:0 3:0.1118034 4:4 5:0 6:7 
1 1:0.052667637 2:0 3:0.10383483 4:4 5:0 6:66 
1 1:0.0015414918 2:0 3:0.14273133 4:7 5:0 6:12 
0.3258260704370121 1:0.058234135 2:0 3:0.12869789 4:8 5:0 6:107 
0.4272100219022984 1:0.17453113 2:0 3:0.10744306 4:2 5:0 6:413 
0.8736831702054327 1:0.022779824 2:0 3:0.17323372 4:1 5:0 6:49 
1 1:0.1118438 2:0.1767767 3:0.26593488 4:0 5:0 6:15 
0.6257911708698376 1:0.0033398989 2:0 3:0.06681531 4:1 5:0 6:80 
0.841598398498366 1:0.17453113 2:0 3:0.098193041 4:8 5:0 6:70 
0.6762254767306608 1:0.00068510748 2:0 3:0.059047187 4:7 5:0 6:60 
1 1:0.1118438 2:0.12909944 3:0.14845392 4:7 5:0 6:31 
0.4318198495172053 1:0.17453113 2:0 3:0.12856487 4:6 5:0 6:1372 
0.9333833299253822 1:0.1118438 2:0.23904572 3:0.13341807 4:4 5:0 6:529 
1 1:0.019097371 2:0 3:0.086925717 4:9 5:0 6:100 
1 1:0.0002569153 2:0.1118034 3:0.078242088 4:11 5:0 6:16 
0.1995955140118287 1:0.17453113 2:0.18257419 3:0.11275885 4:3 5:0 6:133 
1 1:0.022779824 2:0.56568542 3:0.26165542 4:1 5:0 6:19 
1 1:0.022779824 2:0.14142136 3:0.15321836 4:1 5:0 6:61 
1 1:0.021666524 2:0 3:0.053486219 4:1 5:0.70710678 6:11 
1 1:0.0044531986 2:0.28284271 3:0.09166985 4:25 5:0 6:12 
1 1:0.023293654 2:0 3:0 4:10 5:0 6:27 
0.3553128942989445 1:0.023293654 2:0.57735027 3:0 4:9 5:0 6:100 
1 1:0.1118438 2:0.23570226 3:0.090281724 4:6 5:0 6:19 
1 1:0.17453113 2:0 3:0.18021829 4:4 5:0 6:14 
0.4215336615317135 1:0.052667637 2:0 3:0.17549938 4:4 5:0 6:121 
0.005323619364155152 1:0.004538837 2:0 3:0.071326749 4:3 5:0 6:874 
1 1:0.021666524 2:0 3:0.15314097 4:3 5:0.5 6:8 
1 1:0.023293654 2:0 3:0.33553176 4:1 5:0 6:5 
1 1:0.0061659673 2:0.28867513 3:0.23204774 4:1 5:0 6:27 
0.4044523482451919 1:0.1118438 2:0 3:0 4:12 5:0 6:526 
1 1:0.1118438 2:0 3:0 4:11 5:0 6:43 
1 1:0.0010276612 2:0 3:0.084794495 4:7 5:0 6:18 
1 1:0.0053095829 2:0 3:0.054287529 4:5 5:0 6:15 
1 1:0.1118438 2:0 3:0.12311053 4:4 5:0 6:33 
0.3155850199655614 1:0.052667637 2:0 3:0 4:14 5:0 6:210 
1 1:0.019097371 2:0 3:0.25475492 4:10 5:0 6:39 
1 1:0.0050526676 2:0 3:0.091820005 4:6 5:0 6:10 
1 1:0.1118438 2:0 3:0.076822128 4:1 5:0 6:101 
1 1:0.1118438 2:0 3:0.12868191 4:0 5:0 6:67 
1 1:0.020724501 2:0 3:0.21669677 4:3 5:0 6:8 
0.2072461877886382 1:0.17453113 2:0 3:0.064432374 4:9 5:0 6:595 
1 1:0.052667637 2:0.18257419 3:0 4:14 5:0 6:97 
1 1:0.052667637 2:0.25819889 3:0 4:10 5:0 6:20 
1 1:0.052667637 2:0 3:0 4:8 5:0 6:75 
1 1:0.0011989381 2:0.16903085 3:0 4:13 5:0 6:9 
1 1:0.00068510748 2:0.4 3:0.1753336 4:4 5:0 6:17 
0.3798642483635968 1:0.004538837 2:0 3:0.034079909 4:3 5:0 6:874 
1 1:0.0026547915 2:0 3:0.17966971 4:2 5:0 6:5 
1 1:0.17453113 2:0.14142136 3:0.18405254 4:1 5:0 6:17 
0.4292636797950135 1:0.0044531986 2:0 3:0.07445292 4:25 5:0 6:518 
0.3104315627771309 1:0.17453113 2:0 3:0.039317433 4:6 5:0 6:657 
0.7077700417189609 1:0.0014558534 2:0.26726124 3:0.18867054 4:5 5:0 6:38 
1 1:0.0042819217 2:0 3:0 4:8 5:0.25819889 6:5 
1 1:8.5638435e-05 2:0.20412415 3:0 4:4 5:0 6:8 
1 1:8.5638435e-05 2:0.15811388 3:0 4:4 5:0 6:1 
1 1:0.0026547915 2:0.13363062 3:0.2175731 4:2 5:0 6:29 
1 1:0.0026547915 2:0.11785113 3:0.10909291 4:2 5:0 6:19 
0.3022052795423454 1:0.17453113 2:0.125 3:0.12418103 4:1 5:0 6:134 
1 1:0.0014558534 2:0.25 3:0.26211622 4:3 5:0 6:17 
0.5856316322848667 1:0.0016271303 2:0.15811388 3:0.13596043 4:2 5:0 6:31 
1 1:0.0016271303 2:0.31622777 3:0.15314097 4:2 5:0 6:13 
1 1:0.0016271303 2:0.35355339 3:0.25192675 4:2 5:0 6:4 
1 1:0.0042819217 2:0.40089186 3:0.28988276 4:0 5:0 6:10 
0.4292446665134824 1:0.17453113 2:0.16666667 3:0.11236664 4:8 5:0 6:474 
0.4289310939401587 1:0.0049670292 2:0 3:0.10863102 4:25 5:0 6:1306 
0.007448717874738546 1:0.17453113 2:0.2981424 3:0.15990054 4:5 5:0 6:131 
0.4022619531705487 1:0.0044531986 2:0 3:0.13957263 4:29 5:0 6:48 
0.4289303853487024 1:0.17453113 2:0.11785113 3:0.14117732 4:9 5:0 6:1420 
0.8833494526459542 1:0.052667637 2:0.1767767 3:0.1942798 4:4 5:0 6:48 
0.4294327648572256 1:0.0024835146 2:0.28867513 3:0 4:8 5:0 6:66 
1 1:0.0017127687 2:0 3:0.12870605 4:6 5:0 6:18 
1 1:0.0064228826 2:0 3:0.11697707 4:3 5:0 6:27 
1 1:0.023293654 2:0.15811388 3:0.10407268 4:3 5:0 6:60 
0.3184263593285355 1:0.0089063972 2:0.28867513 3:0.18103448 4:3 5:0 6:46 
0.4293075868884358 1:0.1118438 2:0 3:0.061968745 4:2 5:0 6:952 
0.4279279020519317 1:0.17453113 2:0 3:0.11766968 4:5 5:0 6:451 
0.4318747144522009 1:0.00059946904 2:0 3:0.053235403 4:14 5:0 6:261 
1 1:0.019097371 2:0.14433757 3:0.05478938 4:9 5:0 6:18 
1 1:0.021666524 2:0 3:0.042859876 4:3 5:0 6:24 
0.3262653789441599 1:0.022779824 2:0 3:0.1540314 4:1 5:0 6:25 
0.4290679187773074 1:0.051104605 2:0 3:0.1335118 4:10 5:0 6:500 
0.2501273020728211 1:0.0063880756 2:0.13608276 3:0.11923641 4:10 5:0 6:726 
0.7652326469355561 1:0.0024842516 2:0 3:0.1819837 4:9 5:0 6:271 
0.2011883126628109 1:0.0015082956 2:0.1490712 3:0.17860782 4:7 5:0 6:311 
1 1:0.051104605 2:0 3:0.13968001 4:5 5:0 6:37 
1 1:0.0006210629 2:0 3:0.15194549 4:5 5:0 6:17 
1 1:0.0063880756 2:0.13608276 3:0.15969005 4:5 5:0 6:46 
1 1:0.00017744654 2:0 3:0.16372383 4:3 5:0 6:7 
1 1:0.0032827611 2:0.1490712 3:0.31076081 4:3 5:0.15811388 6:13 
1 1:0.0030165913 2:0.11785113 3:0.22513791 4:3 5:0 6:4 
1 1:0.0024842516 2:0 3:0.14478707 4:3 5:0 6:16 
1 1:0.0012421258 2:0 3:0.17830688 4:2 5:0 6:15 
0.6712126454542575 1:0.0012421258 2:0.2981424 3:0.21390741 4:2 5:0.2981424 6:27 
1 1:0.0012421258 2:0.10540926 3:0.24948718 4:2 5:0 6:27 
1 1:0.0012421258 2:0.27216553 3:0.19205532 4:2 5:0 6:18 
1 1:0.012953598 2:0 3:0.19337477 4:2 5:0.4472136 6:23 
1 1:0.0032827611 2:0 3:0.20717387 4:2 5:0 6:7 
1 1:0.0063880756 2:0.23570226 3:0.12167715 4:2 5:0 6:7 
1 1:0.0012421258 2:0 3:0.16461885 4:1 5:0 6:21 
1 1:0.0012421258 2:0 3:0.19917864 4:1 5:0.4472136 6:6 
0.7648329982640846 1:0.0012421258 2:0.25197632 3:0.24170285 4:1 5:0.3380617 6:2 
0.3508498755262249 1:0.0066833751 2:0 3:0 4:11 5:0 6:1409 
1 1:0.077694236 2:0 3:0.070852525 4:14 5:0 6:102 
0.465789823781971 1:0.0016708438 2:0 3:0.065644555 4:8 5:0 6:422 
0.5279121630434785 1:0.011695906 2:0 3:0.048551572 4:9 5:0 6:155 
0.2394168644529643 1:0.011695906 2:0 3:0.092051367 4:9 5:0 6:188 
0.04964905609471088 1:0.082706767 2:0.12598816 3:0.072289157 4:7 5:0 6:131 
0.2886866863017178 1:0.016708438 2:0.15430335 3:0.2004012 4:7 5:0 6:287 
1 1:0.0083542189 2:0 3:0.11257919 4:4 5:0.25 6:10 
1 1:0.011695906 2:0 3:0.079284384 4:6 5:0 6:28 
1 1:0.00083542189 2:0.15430335 3:0.05668202 4:3 5:0 6:1 
1 1:0.01754386 2:0 3:0.10562071 4:3 5:0 6:9 
1 1:0.0050125313 2:0.14285714 3:0.090463684 4:5 5:0 6:8 
0.3224089074664142 1:0.002688172 2:0 3:0 4:9 5:0 6:111 
0.7533119406545662 1:0.002688172 2:0 3:0.093029545 4:8 5:0 6:220 
1 1:0.0080645161 2:0 3:0.12362672 4:5 5:0 6:23 
1 1:0.016129032 2:0.23570226 3:0.11057996 4:3 5:0 6:13 
1 1:0.002688172 2:0 3:0.12139284 4:3 5:0 6:4 
1 1:0.083333333 2:0.18257419 3:0.16753068 4:1 5:0.21821789 6:10 
1 1:0.041666667 2:0.16903085 3:0.1681682 4:1 5:0 6:3 
1 1:0.041666667 2:0.2 3:0.25337232 4:0 5:0.51639778 6:1 
1 1:0.083333333 2:0 3:0.10325203 4:1 5:0 6:2 
1 1:0.083333333 2:0 3:0.042257713 4:1 5:0 6:5 
1 1:0.041666667 2:0 3:0 4:12 5:0 6:52 
1 1:0.041666667 2:0.38490018 3:0 4:6 5:0 6:13 
1 1:0.041666667 2:0 3:0 4:4 5:0 6:10 
1 1:0.041666667 2:0.27216553 3:0 4:3 5:0 6:2 
1 1:0.041666667 2:0 3:0 4:2 5:0 6:4 
1 1:0.083333333 2:0.19245009 3:0 4:1 5:0 6:2 
1 1:0.041666667 2:0 3:0 4:2 5:0 6:1 
1 1:0.041666667 2:0.23570226 3:0 4:0 5:0 6:2 
1 1:0.041666667 2:0.1490712 3:0 4:0 5:0.5 6:1 
0.5773240292970707 1:0.041666667 2:0 3:0 4:2 5:0 6:41 
1 1:0.041666667 2:0 3:0 4:2 5:0 6:39 
1 1:0.041666667 2:0.1767767 3:0 4:1 5:0 6:6 
1 1:0.083333333 2:0 3:0 4:1 5:0 6:25 
1 1:0.041666667 2:0.11785113 3:0 4:1 5:0 6:7 
1 1:0.041666667 2:0 3:0 4:1 5:0 6:3 
1 1:0.083333333 2:0.26726124 3:0 4:0 5:0 6:1 
1 1:0.083333333 2:0.14433757 3:0 4:0 5:0.66666667 6:1 
1 1:0.00083542189 2:0.13363062 3:0.15666401 4:11 5:0 6:12 
1 1:0.00083542189 2:0 3:0 4:5 5:0 6:24 
1 1:0.0091896408 2:0.625 3:0.20725544 4:2 5:0 6:1 
1 1:0.00083542189 2:0.13363062 3:0.17607625 4:1 5:0.63245553 6:1 
1 1:0.0091896408 2:0.25 3:0.1121675 4:1 5:0 6:1 
0.4292170110120136 1:0.0038628682 2:0 3:0 4:15 5:0 6:805 
1 1:0.0062771608 2:0.40824829 3:0.26111648 4:8 5:0 6:38 
1 1:0.042974408 2:0.44444444 3:0.11677484 4:7 5:0 6:17 
1 1:0.0062771608 2:0.4472136 3:0.13997313 4:6 5:0 6:12 
1 1:0.0062771608 2:0 3:0.23354968 4:2 5:0 6:9 
1 1:0.013927577 2:0.13363062 3:0 4:4 5:0.40824829 6:2 
0.569628749782691 1:0.0055710306 2:0 3:0.042328635 4:4 5:0 6:200 
0.2658993543701013 1:0.0055710306 2:0.54772256 3:0.14497284 4:2 5:0 6:227 
1 1:0.11977716 2:0 3:0 4:12 5:0 6:1 
1 1:0.11977716 2:0 3:0.028708463 4:2 5:0 6:2 
1 1:0.11977716 2:0 3:0.15440391 4:0 5:0 6:1 
1 1:0.0027855153 2:0 3:0 4:3 5:0 6:16 
1 1:0.0027855153 2:0.18898224 3:0 4:7 5:0 6:1 
1 1:0.0027855153 2:0 3:0 4:2 5:0 6:1 
1 1:0.00028058361 2:0.28867513 3:0.11116216 4:15 5:0 6:16 
1 1:0.005798728 2:0.26726124 3:0.15861032 4:8 5:0 6:7 
1 1:0.00028058361 2:0.26726124 3:0.19895561 4:8 5:0 6:4 
1 1:0.003647587 2:0.1767767 3:0.13779456 4:5 5:0 6:4 
1 1:0.010288066 2:0.11785113 3:0.31416904 4:5 5:0 6:12 
1 1:9.3527871e-05 2:0.2236068 3:0.21997067 4:5 5:0 6:3 
1 1:0.0017770296 2:0.23570226 3:0.2284161 4:5 5:0 6:7 
1 1:0.00037411149 2:0.47140452 3:0.27363362 4:5 5:0 6:2 
1 1:9.3527871e-05 2:0 3:0.15581256 4:3 5:0 6:2 
1 1:0.027871306 2:0.3354102 3:0.21889876 4:0 5:0 6:3 
1 1:0.016460905 2:0.20412415 3:0.18405254 4:8 5:0 6:25 
1 1:0.016460905 2:0 3:0.1122198 4:4 5:0 6:33 
1 1:0.0071081182 2:0.31622777 3:0.12274756 4:9 5:0 6:15 
1 1:0.0071081182 2:0.15811388 3:0.087940809 4:6 5:0 6:18 
1 1:0.0039499671 2:0 3:0 4:11 5:0 6:7 
1 1:0.0013166557 2:0.38490018 3:0 4:8 5:0 6:14 
1 1:0.0013166557 2:0.11785113 3:0.14165282 4:2 5:0 6:2 
1 1:0.016129032 2:0 3:0.1467348 4:9 5:0 6:6 
0.6405084090927122 1:0.004279131 2:0.12598816 3:0.23026947 4:7 5:0 6:45 
1 1:0.00032916392 2:0.26726124 3:0 4:20 5:0 6:3 
0.3657099335377341 1:0.0062541145 2:0.42857143 3:0.14914967 4:2 5:0 6:8 
0.4349432981316256 1:0.0019749835 2:0 3:0.074173854 4:26 5:0 6:95 
1 1:0.0062541145 2:0.25197632 3:0.086351049 4:1 5:0 6:15 
1 1:0.0032916392 2:0.3086067 3:0.14611347 4:0 5:0 6:4 
1 1:0.0069124424 2:0.42857143 3:0.095420836 4:11 5:0 6:18 
1 1:0.20131579 2:0 3:0.0985778 4:7 5:0 6:14 
0.4289777315784231 1:0.15394737 2:0 3:0.08700279 4:6 5:0 6:3358 
1 1:0.0026315789 2:0 3:0.072954057 4:6 5:0 6:187 
0.385856482405817 1:0.044736842 2:0.2 3:0.10666023 4:5 5:0 6:877 
1 1:0.026315789 2:0.4472136 3:0.085113067 4:5 5:0 6:20 
0.426174420647671 1:0.060526316 2:0 3:0.088059023 4:4 5:0 6:521 
0.2213340198025369 1:0.20131579 2:0.3380617 3:0.070746783 4:3 5:0 6:73 
0.2174414182232663 1:0.0026315789 2:0 3:0.12722078 4:3 5:0 6:104 
1 1:0.0039473684 2:0 3:0.15704507 4:4 5:0 6:36 
1 1:0.0026315789 2:0 3:0.11881485 4:1 5:0 6:32 
0.3270845678637231 1:0.20131579 2:0.36514837 3:0.13716301 4:0 5:0 6:166 
1 1:0.048684211 2:0 3:0.090144347 4:4 5:0 6:27 
0.7285904278069675 1:0.004279131 2:0.2236068 3:0 4:12 5:0 6:103 
1 1:0.0062541145 2:0.2236068 3:0.13716301 4:2 5:0 6:4 
0.2555142479929518 1:0.0062541145 2:0.2773501 3:0 4:22 5:0 6:71 
0.3662750546116295 1:0.00065832785 2:0.13867505 3:0 4:13 5:0 6:253 
1 1:0.26728111 2:0.31448545 3:0 4:12 5:0 6:37 
1 1:0.00065832785 2:0.13867505 3:0 4:26 5:0 6:21 
1 1:0.01514154 2:0.31448545 3:0.24193548 4:7 5:0 6:11 
1 1:0.26728111 2:0.1490712 3:0 4:13 5:0 6:6 
1 1:0.00065832785 2:0.3380617 3:0.1428869 4:10 5:0 6:27 
1 1:0.022712311 2:0.2981424 3:0.12729377 4:7 5:0 6:11 
1 1:0.022712311 2:0 3:0.28614654 4:11 5:0 6:7 
1 1:0.26728111 2:0.23904572 3:0.17817416 4:11 5:0 6:12 
1 1:0.26728111 2:0 3:0 4:22 5:0 6:16 
1 1:0.26728111 2:0 3:0 4:12 5:0 6:13 
1 1:0.26728111 2:0 3:0.26711526 4:2 5:0 6:11 
1 1:0.26728111 2:0 3:0.34602696 4:2 5:0 6:7 
1 1:0.26728111 2:0 3:0.17843989 4:9 5:0 6:6 
1 1:0.26728111 2:0.12598816 3:0.26046613 4:6 5:0 6:8 
1 1:0.039499671 2:0.23904572 3:0 4:18 5:0 6:3 
1 1:0.26728111 2:0 3:0 4:14 5:0 6:4 
0.3868277238887796 1:0.0039499671 2:0 3:0 4:10 5:0 6:355 
1 1:0.0029624753 2:0 3:0.052164053 4:0 5:0 6:32 
1 1:0.26728111 2:0.14142136 3:0.32453151 4:4 5:0.5 6:18 
0.2935811613101572 1:0.0014964459 2:0.31448545 3:0.086101183 4:10 5:0 6:203 
0.6301672619108621 1:0.00093527871 2:0 3:0.22664652 4:10 5:0 6:113 
1 1:9.3527871e-05 2:0.1132277 3:0.12561651 4:8 5:0 6:15 
1 1:0.0058922559 2:0.098058068 3:0.16310003 4:6 5:0 6:15 
1 1:0.00093527871 2:0 3:0.1524147 4:5 5:0 6:7 
1 1:9.3527871e-05 2:0.22645541 3:0.1210871 4:3 5:0 6:1 
1 1:0.027871306 2:0 3:0.17244797 4:1 5:0 6:1 
1 1:0.027871306 2:0.1754116 3:0.096125793 4:1 5:0 6:12 
1 1:0.027871306 2:0.26311741 3:0.081408803 4:1 5:0 6:4 
1 1:0.00046763936 2:0.3086067 3:0.10258682 4:5 5:0 6:2 
1 1:0.022727273 2:0.13363062 3:0.17909023 4:4 5:0.28867513 6:4 
1 1:0.022727273 2:0.23904572 3:0.19701536 4:4 5:0 6:3 
1 1:0.00028058361 2:0.15430335 3:0.18319074 4:4 5:0 6:15 
1 1:0.010288066 2:0.25197632 3:0.13645928 4:3 5:0 6:9 
1 1:0.027871306 2:0.14285714 3:0.12608983 4:3 5:0 6:6 
1 1:0.0006546951 2:0.19518001 3:0.12943175 4:3 5:0 6:2 
1 1:0.0006546951 2:0.12598816 3:0.11248243 4:3 5:0 6:1 
1 1:0.016460905 2:0 3:0.14644195 4:3 5:0 6:6 
1 1:0.0014964459 2:0 3:0.15153077 4:3 5:0 6:2 
1 1:0.00046763936 2:0.11396058 3:0.20314344 4:3 5:0 6:4 
1 1:0.0085110363 2:0.25197632 3:0.13821174 4:3 5:0.28867513 6:1 
1 1:0.016460905 2:0 3:0.11994714 4:2 5:0 6:8 
1 1:0.0006546951 2:0.11952286 3:0.23507608 4:2 5:0 6:2 
1 1:0.016460905 2:0 3:0.20886056 4:2 5:0 6:2 
1 1:0.0006546951 2:0.13363062 3:0.12498047 4:2 5:0 6:4 
1 1:0.00037411149 2:0.11396058 3:0.13930434 4:2 5:0 6:1 
1 1:0.010288066 2:0.11952286 3:0.15115746 4:1 5:0 6:2 
1 1:0.020389076 2:0.11952286 3:0.13189734 4:1 5:0 6:4 
1 1:9.3527871e-05 2:0.15430335 3:0.19636542 4:5 5:0 6:2 
1 1:0.0060793116 2:0.14285714 3:0.097956925 4:4 5:0 6:24 
1 1:0.0085110363 2:0 3:0.096483804 4:6 5:0 6:5 
1 1:0.0040216985 2:0.25197632 3:0.19255017 4:5 5:0.28867513 6:2 
1 1:0.016460905 2:0 3:0.18917696 4:5 5:0 6:17 
1 1:0.0019047619 2:0.6681531 3:0 4:21 5:0.70710678 6:31 
0.8808223611564314 1:0.00095238095 2:0 3:0 4:19 5:0 6:87 
1 1:0.066666667 2:0.6761234 3:0 4:17 5:0 6:29 
1 1:0.066666667 2:0.50709255 3:0 4:14 5:0 6:19 
1 1:0.18761905 2:0.6172134 3:0 4:13 5:0 6:31 
1 1:0.18761905 2:0 3:0 4:11 5:0 6:3 
1 1:0.0066666667 2:0.26726124 3:0.087333376 4:3 5:0 6:13 
1 1:0.065714286 2:0.42857143 3:0.16112585 4:2 5:0 6:2 
1 1:0.065714286 2:0.26726124 3:0.19693159 4:1 5:0 6:1 
1 1:0.00095238095 2:0 3:0 4:18 5:0 6:17 
1 1:0.00095238095 2:0 3:0 4:15 5:0 6:3 
1 1:0.0019047619 2:0 3:0 4:30 5:0 6:16 
0.9552045071299113 1:0.0019047619 2:0 3:0.21459877 4:13 5:0 6:39 
0.1286337192042274 1:0.0038095238 2:0.13867505 3:0 4:5 5:0 6:177 
1 1:0.0066666667 2:0 3:0.2492439 4:4 5:0 6:2 
1 1:0.0019047619 2:0 3:0.22400538 4:3 5:0 6:3 
1 1:0.00095238095 2:0 3:0.21886217 4:4 5:0 6:3 
0.3798613572535859 1:0.0051587302 2:0.40089186 3:0 4:7 5:0 6:357 
0.226005309726295 1:0.0051587302 2:0.4330127 3:0.10341754 4:2 5:0 6:191 
0.2928212946704035 1:0.0051587302 2:0.31622777 3:0.25522131 4:2 5:0 6:171 
0.948543575230083 1:0.0011904762 2:0.58925565 3:0.12255111 4:7 5:0 6:123 
1 1:0.0003968254 2:0.15811388 3:0.40576303 4:2 5:0 6:13 
0.9851291830175384 1:0.0003968254 2:0.40824829 3:0 4:4 5:0 6:30 
0.113975850180347 1:0.0023809524 2:0.53033009 3:0.049167116 4:1 5:0 6:68 
1 1:0.0003968254 2:0.13363062 3:0 4:5 5:0 6:4 
0.4270650229035631 1:0.0034602076 2:0.16903085 3:0 4:12 5:0 6:107 
1 1:0.017301038 2:0 3:0 4:11 5:0 6:34 
0.3609317713425367 1:0.0069204152 2:0 3:0 4:2 5:0 6:1200 
0.009457634130219494 1:0.048442907 2:0 3:0.068640647 4:21 5:0 6:2017 
1 1:0.0034602076 2:0.16903085 3:0 4:11 5:0 6:11 
1 1:0.21453287 2:0 3:0 4:2 5:0 6:8 
0.07652860586200388 1:0.0069204152 2:0 3:0 4:2 5:0 6:62 
1 1:0.10380623 2:0 3:0.15364426 4:3 5:0 6:61 
1 1:0.0034602076 2:0 3:0 4:14 5:0 6:243 
0.3253816882013895 1:0.010380623 2:0 3:0 4:11 5:0 6:226 
0.5130436155199023 1:0.027681661 2:0 3:0.18933847 4:10 5:0 6:134 
1 1:0.024221453 2:0 3:0.10952216 4:9 5:0 6:13 
0.3898279763854293 1:0.0069204152 2:0 3:0 4:8 5:0 6:281 
0.8590908270867863 1:0.0069204152 2:0 3:0.079471941 4:7 5:0 6:119 
0.214734728140156 1:0.038062284 2:0 3:0.23102006 4:6 5:0 6:1049 
0.4303516910961211 1:0.017301038 2:0 3:0.14801496 4:3 5:0 6:87 
0.528546636406481 1:0.020761246 2:0 3:0 4:1 5:0 6:51 
1 1:0.0034602076 2:0 3:0.072547625 4:13 5:0 6:28 
0.2664011652419381 1:0.01384083 2:0 3:0.17456413 4:14 5:0 6:230 
0.4293572368081914 1:0.017301038 2:0 3:0.11531327 4:12 5:0 6:648 
0.2515551499445041 1:0.017301038 2:0 3:0 4:11 5:0 6:725 
0.3956812792034738 1:0.010380623 2:0 3:0 4:11 5:0 6:181 
1 1:0.038062284 2:0.20412415 3:0.15880407 4:6 5:0 6:36 
1 1:0.048442907 2:0.28867513 3:0 4:2 5:0 6:18 
0.4283595781921831 1:0.020761246 2:0 3:0 4:1 5:0 6:258 
0.4195425108641128 1:0.048442907 2:0 3:0.1078173 4:21 5:0 6:2017 
1 1:0.010380623 2:0 3:0 4:1 5:0 6:1 
0.01352111468749551 1:0.21453287 2:0 3:0 4:10 5:0 6:222 
0.08724336250476385 1:0.21453287 2:0 3:0 4:4 5:0 6:58 
0.1345107549770018 1:0.21453287 2:0 3:0 4:2 5:0.57735027 6:166 
1 1:0.21453287 2:0 3:0 4:1 5:0 6:37 
1 1:0.027681661 2:0 3:0 4:3 5:0 6:54 
0.3336371953540382 1:0.0069204152 2:0 3:0 4:1 5:0 6:189 
0.4288340665248189 1:0.010380623 2:0 3:0.068354157 4:20 5:0 6:254 
0.361280420809742 1:0.10380623 2:0 3:0.14106912 4:3 5:0 6:232 
0.4292450529472575 1:0.017301038 2:0 3:0.048911599 4:3 5:0 6:2005 
0.07661064670448101 1:0.21453287 2:0.40824829 3:0 4:10 5:0 6:223 
1 1:0.21453287 2:0.40824829 3:0 4:10 5:0 6:191 
0.02788143499504156 1:0.21453287 2:0.36514837 3:0.19069252 4:3 5:0 6:176 
1 1:0.21453287 2:0 3:0 4:2 5:0 6:12 
1 1:0.0034602076 2:0 3:0 4:3 5:0 6:87 
0.1282032328963209 1:0.01384083 2:0 3:0.1062988 4:14 5:0 6:230 
0.7706872336693436 1:0.01384083 2:0 3:0 4:8 5:0 6:111 
1 1:0.024221453 2:0 3:0 4:10 5:0 6:28 
1 1:0.024221453 2:0 3:0 4:10 5:0 6:39 
0.2144407417914338 1:0.038062284 2:0 3:0.086219713 4:6 5:0 6:1049 
0.05810405182135031 1:0.027681661 2:0 3:0 4:5 5:0 6:89 
0.4293896412778545 1:0.048442907 2:0 3:0.04280585 4:20 5:0 6:1388 
0.3113933825425408 1:0.21453287 2:0 3:0.077629668 4:8 5:0 6:347 
0.1450989798111277 1:0.21453287 2:0 3:0.057861738 4:4 5:0 6:140 
1 1:0.10380623 2:0 3:0.08035434 4:8 5:0 6:107 
1 1:0.0018281536 2:0 3:0 4:14 5:0 6:25 
0.4251004795913962 1:0.00084559445 2:0 3:0 4:13 5:0 6:311 
0.4294443173621105 1:0.00088787418 2:0.20412415 3:0 4:5 5:0 6:4748 
0.4293977628377735 1:0.0029595806 2:0 3:0.048098607 4:5 5:0 6:1646 
0.4263926545139202 1:0.1743193 2:0 3:0.091744835 4:3 5:0 6:595 
0.3226056054679736 1:0.1743193 2:0 3:0.1685819 4:2 5:0.40824829 6:138 
0.6598589749254292 1:0.050186031 2:0 3:0 4:2 5:0 6:44 
0.429274069125189 1:0.00033823778 2:0.14433757 3:0 4:2 5:0 6:1239 
0.4157893143365591 1:0.021985456 2:0 3:0.074893086 4:3 5:0 6:387 
1 1:0.00012683917 2:0 3:0.08735707 4:1 5:0 6:15 
1 1:0.010074231 2:0 3:0.057212957 4:10 5:0 6:39 
1 1:0.0026954178 2:0.14433757 3:0 4:1 5:0 6:5 
0.2202206901680474 1:0.051212938 2:0 3:0.097534289 4:7 5:0 6:335 
1 1:0.021563342 2:0.66666667 3:0 4:0 5:0 6:5 
1 1:0.013477089 2:0.3086067 3:0 4:12 5:0 6:18 
1 1:0.1509434 2:0.18257419 3:0.11785113 4:4 5:0 6:15 
1 1:0.00070463887 2:0.16903085 3:0 4:16 5:0 6:21 
1 1:0.00011743981 2:0.15430335 3:0 4:15 5:0 6:1 
1 1:0.0009395185 2:0 3:0 4:14 5:0 6:3 
1 1:0.00011743981 2:0.15430335 3:0 4:9 5:0 6:8 
1 1:0.0009395185 2:0 3:0.19148542 4:6 5:0 6:2 
1 1:0.094421609 2:0.16903085 3:0.11986583 4:4 5:0 6:6 
1 1:0.0061068702 2:0.11952286 3:0.11136921 4:5 5:0 6:10 
1 1:0.094421609 2:0 3:0.095173373 4:6 5:0 6:20 
0.02778852636297123 1:0.043100411 2:0 3:0.063583837 4:6 5:0 6:116 
1 1:0.015736935 2:0.21821789 3:0.11765121 4:16 5:0 6:20 
0.4291281167407713 1:0.0017953321 2:0 3:0 4:26 5:0 6:243 
0.4293943356954301 1:0.0017953321 2:0 3:0.080012803 4:24 5:0 6:648 
0.6214185393642615 1:0.0035906643 2:0 3:0.17942452 4:23 5:0 6:18 
0.409306933441507 1:0.0035906643 2:0.12598816 3:0.096015364 4:23 5:0 6:144 
0.4271182460553458 1:0.0017953321 2:0.12598816 3:0 4:20 5:0 6:281 
1 1:0.0017953321 2:0.15430335 3:0 4:19 5:0 6:6 
0.2596681741498983 1:0.0017953321 2:0 3:0 4:16 5:0 6:460 
0.4291389563011577 1:0.0017953321 2:0 3:0 4:14 5:0 6:1200 
1 1:0.0017953321 2:0.26726124 3:0.088786934 4:11 5:0 6:97 
0.3609285029438504 1:0.010771993 2:0 3:0.073249754 4:12 5:0 6:606 
1 1:0.010771993 2:0 3:0 4:23 5:0 6:37 
1 1:0.010771993 2:0 3:0 4:23 5:0 6:18 
0.8595848432516484 1:0.010771993 2:0.16903085 3:0 4:23 5:0 6:114 
0.428406679555575 1:0.010771993 2:0 3:0 4:22 5:0 6:222 
1 1:0.010771993 2:0.16903085 3:0 4:22 5:0 6:12 
1 1:0.0017953321 2:0 3:0.031844694 4:7 5:0 6:10 
1 1:0.0017953321 2:0 3:0.064010242 4:5 5:0 6:15 
1 1:0.0017953321 2:0 3:0.061865271 4:4 5:0 6:1 
1 1:0.010771993 2:0 3:0.054815097 4:6 5:0.28867513 6:1 
1 1:0.0035906643 2:0.26726124 3:0.098591549 4:5 5:0 6:28 
1 1:0.0035906643 2:0 3:0.10614898 4:4 5:0 6:4 
1 1:0.0035906643 2:0.5 3:0 4:11 5:0 6:5 
1 1:0.023339318 2:0 3:0.14729194 4:9 5:0 6:19 
1 1:0.0035906643 2:0.25 3:0 4:14 5:0 6:16 
1 1:0.0035906643 2:0.2236068 3:0.1177603 4:12 5:0 6:1 
0.1336861015626746 1:0.0017953321 2:0.57735027 3:0.031280562 4:3 5:0 6:4 
1 1:0.0017953321 2:0.15430335 3:0.076187297 4:10 5:0 6:3 
0.1848795065120746 1:0.0048959608 2:0.21821789 3:0.064465837 4:1 5:0.47140452 6:162 
0.2259761130592015 1:0.015911873 2:0 3:0 4:1 5:0.70710678 6:277 
0.1978411631329758 1:0.055079559 2:0 3:0 4:2 5:0.47140452 6:194 
0.2175295800049223 1:0.015911873 2:0 3:0 4:1 5:0 6:277 
0.337788087294246 1:0.011004896 2:0 3:0.03870565 4:18 5:0 6:134 
0.4290692699914033 1:0.0004429937 2:0 3:0 4:16 5:0 6:1056 
1 1:0.00046630916 2:0 3:0 4:18 5:0 6:41 
0.4298518968136277 1:0.0023082304 2:0 3:0 4:16 5:0 6:362 
1 1:0.0042900443 2:0 3:0.112513 4:13 5:0 6:67 
0.8093987808357499 1:0.0088132432 2:0 3:0.064271812 4:12 5:0 6:81 
0.1784602446399502 1:0.0088132432 2:0 3:0.09791841 4:11 5:0 6:94 
1 1:0.0014688739 2:0 3:0 4:8 5:0 6:42 
0.175827859184366 1:0.00069946374 2:0.35355339 3:0 4:8 5:0 6:260 
0.2199254633056384 1:0.0037304733 2:0 3:0.043680572 4:7 5:0 6:268 
1 1:0.0011424574 2:0.15811388 3:0 4:5 5:0 6:36 
1 1:0.0034273723 2:0 3:0 4:5 5:0 6:15 
1 1:0.00030310096 2:0 3:0 4:4 5:0 6:208 
1 1:0.0042900443 2:0 3:0.039143016 4:21 5:0 6:60 
0.4210440976454995 1:0.0042900443 2:0 3:0 4:24 5:0 6:285 
1 1:0.0026113313 2:0 3:0 4:11 5:0 6:18 
0.08813879229500869 1:0.00011657729 2:0 3:0 4:11 5:0 6:170 
0.4293416067430626 1:0.0026346468 2:0 3:0.07393335 4:24 5:0 6:348 
1 1:4.6630916e-05 2:0 3:0 4:3 5:0 6:6 
1 1:0.00025647004 2:0 3:0.13644206 4:4 5:0 6:18 
1 1:0.00025647004 2:0 3:0.27604859 4:3 5:0.35355339 6:1 
1 1:2.3315458e-05 2:0 3:0.09636836 4:5 5:0 6:4 
1 1:0.00041967825 2:0 3:0.58294281 4:2 5:0 6:17 
1 1:0.00041967825 2:0 3:0.1483997 4:2 5:0 6:2 
1 1:2.3315458e-05 2:0.14433757 3:0.11742905 4:6 5:0 6:28 
1 1:6.9946374e-05 2:0.14433757 3:0 4:15 5:0 6:28 
1 1:0.0023781767 2:0 3:0.064194074 4:5 5:0 6:7 
1 1:0.236955 2:0.18898224 3:0.13159034 4:3 5:0.67082039 6:18 
0.3629910305762712 1:0.0016087666 2:0 3:0 4:24 5:0 6:176 
1 1:0.236955 2:0.20412415 3:0.03919309 4:8 5:0 6:15 
1 1:0.070749148 2:0.25819889 3:0 4:22 5:0 6:14 
0.4297894948083591 1:0.00049007596 2:0 3:0 4:19 5:0 6:3011 
1 1:0.070749148 2:0 3:0 4:19 5:0 6:16 
1 1:0.002717694 2:0.12309149 3:0.094280904 4:6 5:0 6:21 
1 1:0.17402152 2:0.36514837 3:0.13112201 4:4 5:0 6:27 
1 1:0.001358847 2:0.33333333 3:0.1 4:4 5:0 6:12 
0.4298111633312671 1:2.227618e-05 2:0 3:0 4:34 5:0 6:94 
1 1:0.001358847 2:0 3:0.092376043 4:2 5:0 6:10 
1 1:0.17402152 2:0.16666667 3:0.10444659 4:2 5:0 6:20 
1 1:0.001358847 2:0 3:0.080178373 4:2 5:0 6:19 
1 1:0.00020048562 2:0 3:0 4:23 5:0 6:50 
0.4267398847162279 1:2.227618e-05 2:0 3:0 4:22 5:0 6:108 
0.4296426979083295 1:0.0075961774 2:0 3:0.049724516 4:31 5:0 6:2017 
0.429397126660661 1:0.00051235214 2:0 3:0 4:13 5:0 6:2005 
0.6664482557584125 1:8.910472e-05 2:0 3:0.030358837 4:7 5:0 6:191 
1 1:0.17402152 2:0.12909944 3:0.035245369 4:4 5:0 6:3 
1 1:0.17402152 2:0 3:0.09166985 4:2 5:0 6:3 
0.1318259141083901 1:0.0088436435 2:0 3:0.07824608 4:3 5:0 6:288 
1 1:0.0088436435 2:0 3:0.055577001 4:3 5:0 6:28 
0.1134269725364761 1:0.0088436435 2:0.28867513 3:0.21622499 4:3 5:0 6:172 
0.4290958458992408 1:0.00062373304 2:0.25 3:0 4:8 5:0 6:753 
0.3860319306369265 1:0.00071283776 2:0.31622777 3:0.17025861 4:8 5:0 6:1176 
0.4212219779825939 1:0.0005569045 2:0.47434165 3:0 4:11 5:0 6:278 
0.1647862702463273 1:0.0047448264 2:0 3:0.17933554 4:9 5:0 6:257 
0.2724236136015652 1:0.00028959034 2:0.125 3:0 4:3 5:0 6:312 
1 1:0.17402152 2:0.125 3:0.093922134 4:1 5:0 6:15 
0.007130212502820853 1:0.00037869506 2:0.40089186 3:0.1638873 4:6 5:0 6:57 
1 1:0.00037869506 2:0 3:0.13569553 4:4 5:0 6:26 
0.4293620439908425 1:0.01341026 2:0 3:0.17064291 4:7 5:0 6:1362 
0.1708480278747344 1:0.01341026 2:0.4330127 3:0.2771289 4:5 5:0 6:162 
1 1:0.01341026 2:0.5 3:0.27090714 4:2 5:0 6:17 
1 1:0.0032523223 2:0.12598816 3:0 4:20 5:0 6:24 
1 1:0.0038537792 2:0 3:0 4:18 5:0 6:5 
0.229431158008259 1:0.0054353879 2:0.16666667 3:0 4:15 5:0 6:107 
1 1:0.00015593326 2:0 3:0 4:11 5:0 6:44 
1 1:0.0038537792 2:0.13608276 3:0 4:8 5:0 6:20 
0.4293699416936488 1:0.00060145686 2:0.16666667 3:0.046296296 4:11 5:0 6:1832 
1 1:2.227618e-05 2:0.25197632 3:0.082290322 4:13 5:0 6:11 
0.4292820605819303 1:0.0077521107 2:0 3:0.031686213 4:12 5:0 6:2496 
1 1:0.012140518 2:0.1490712 3:0.14279768 4:13 5:0 6:13 
1 1:6.682854e-05 2:0 3:0 4:17 5:0 6:5 
0.4293579952175868 1:0.00080194248 2:0 3:0 4:9 5:0 6:3951 
1 1:0.17402152 2:0.12598816 3:0.11844484 4:4 5:0 6:19 
1 1:0.0038537792 2:0.13608276 3:0.13780177 4:3 5:0 6:2 
1 1:0.17402152 2:0.10540926 3:0.021790682 4:1 5:0 6:7 
1 1:0.17402152 2:0 3:0.039699422 4:1 5:0 6:3 
1 1:0.17402152 2:0.11111111 3:0.1107351 4:0 5:0 6:21 
1 1:0.0015593326 2:0.11785113 3:0.11664237 4:12 5:0 6:14 
1 1:0.17402152 2:0.10540926 3:0.11878277 4:3 5:0 6:20 
0.1986520247523276 1:0.0092891671 2:0.096225045 3:0.057505463 4:11 5:0 6:63 
1 1:0.0092891671 2:0.11785113 3:0.054476704 4:5 5:0 6:19 
1 1:0.0092891671 2:0.19245009 3:0.096225045 4:18 5:0 6:4 
0.2997566584450323 1:8.910472e-05 2:0.18257419 3:0 4:19 5:0 6:376 
0.4293631906354193 1:0.00040097124 2:0 3:0 4:18 5:0 6:3203 
1 1:0.0085095008 2:0 3:0.038054033 4:17 5:0 6:1 
1 1:2.227618e-05 2:0.16666667 3:0 4:18 5:0 6:13 
1 1:0.0075961774 2:0 3:0 4:16 5:0 6:45 
1 1:0.0032300461 2:0 3:0 4:14 5:0 6:4 
1 1:0.0045443407 2:0.16666667 3:0.045631665 4:13 5:0 6:23 
1 1:4.455236e-05 2:0.18257419 3:0 4:11 5:0.70710678 6:11 
1 1:0.0045443407 2:0 3:0.027031415 4:10 5:0 6:24 
0.2283790223218933 1:0.00095787574 2:0 3:0 4:12 5:0 6:41 
0.2988998935820679 1:0.0045443407 2:0.3086067 3:0.070408742 4:9 5:0 6:131 
1 1:2.227618e-05 2:0.20412415 3:0 4:13 5:0 6:56 
1 1:0.0032300461 2:0.16666667 3:0.16384791 4:7 5:0.5 6:3 
1 1:8.910472e-05 2:0 3:0.09797714 4:10 5:0 6:24 
1 1:4.455236e-05 2:0.16666667 3:0 4:7 5:0 6:3 
1 1:2.227618e-05 2:0 3:0.038206293 4:5 5:0 6:3 
1 1:8.910472e-05 2:0 3:0.063073302 4:4 5:0.35355339 6:2 
1 1:8.910472e-05 2:0.28867513 3:0 4:3 5:0 6:13 
1 1:0.17402152 2:0.24618298 3:0.16044989 4:2 5:0 6:8 
1 1:0.0032300461 2:0.18257419 3:0.11713613 4:2 5:0.35355339 6:6 
0.0589205562402468 1:6.682854e-05 2:0.18257419 3:0.084312875 4:2 5:0 6:113 
1 1:0.0045443407 2:0.18257419 3:0.081879242 4:2 5:0 6:22 
1 1:0.17402152 2:0.16666667 3:0.063959622 4:1 5:0 6:8 
1 1:0.0032300461 2:0.15430335 3:0.12417045 4:1 5:0.35355339 6:2 
1 1:0.00064600922 2:0.14433757 3:0.20485124 4:1 5:0.31622777 6:4 
1 1:6.682854e-05 2:0.15430335 3:0.16407707 4:1 5:0.40824829 6:2 
1 1:4.455236e-05 2:0.40824829 3:0.058846158 4:2 5:0 6:4 
0.429404086305578 1:0.0021385133 2:0 3:0 4:21 5:0 6:1172 
0.4290222926648709 1:0.00082421866 2:0 3:0 4:17 5:0 6:2414 
1 1:0.0022721704 2:0.15430335 3:0 4:11 5:0 6:28 
0.421341809123665 1:0.0010024281 2:0 3:0 4:10 5:0 6:376 
1 1:0.0075961774 2:0 3:0 4:9 5:0 6:56 
0.2171898930158112 1:0.0028513511 2:0 3:0.11839598 4:9 5:0 6:110 
0.2318321710661694 1:0.0004455236 2:0 3:0 4:10 5:0 6:2518 
1 1:0.0012251899 2:0 3:0.12292229 4:7 5:0 6:13 
1 1:6.682854e-05 2:0 3:0.048361941 4:6 5:0 6:9 
1 1:0.0001113809 2:0.16903085 3:0.20518234 4:6 5:0 6:41 
1 1:0.00049007596 2:0 3:0.21942686 4:5 5:0 6:8 
1 1:0.00024503798 2:0 3:0.21096325 4:4 5:0 6:6 
0.5473985580130197 1:0.0010024281 2:0 3:0.079574384 4:4 5:0.35355339 6:51 
1 1:0.0022721704 2:0 3:0.043053085 4:4 5:0 6:9 
1 1:0.0026285892 2:0 3:0.14089399 4:3 5:0 6:27 
1 1:6.682854e-05 2:0 3:0 4:3 5:0 6:1 
1 1:0.17402152 2:0 3:0.13333938 4:2 5:0 6:6 
0.9188942205832484 1:0.0022721704 2:0 3:0.15445352 4:1 5:0 6:64 
1 1:0.00028959034 2:0.16903085 3:0.14262992 4:1 5:0 6:9 
1 1:0.0088436435 2:0 3:0.091819827 4:0 5:0 6:4 
0.2583630948023106 1:0.0093337195 2:0.12598816 3:0.16548718 4:9 5:0 6:340 
1 1:0.17402152 2:0 3:0 4:9 5:0 6:14 
1 1:0.0014925041 2:0.13608276 3:0 4:9 5:0 6:16 
1 1:0.0038983315 2:0.4472136 3:0.14990135 4:7 5:0 6:197 
0.04595376554220718 1:0.0006682854 2:0.2981424 3:0.12981838 4:6 5:0 6:83 
0.1492813660519248 1:0.0092446147 2:0.13608276 3:0 4:9 5:0 6:207 
0.1799075875630134 1:0.0038983315 2:0.2981424 3:0.10947965 4:6 5:0 6:114 
0.3036007130999245 1:0.0020271324 2:0 3:0.10692336 4:6 5:0 6:274 
1 1:0.0001113809 2:0.23570226 3:0.099321959 4:6 5:0 6:10 
0.3991729249039278 1:0.0031409414 2:0.25197632 3:0.18641669 4:6 5:0 6:109 
1 1:2.227618e-05 2:0 3:0.1239715 4:6 5:0 6:6 
1 1:0.0011806375 2:0.40824829 3:0.10643057 4:2 5:0 6:12 
1 1:0.17402152 2:0.25197632 3:0.16063235 4:2 5:0 6:4 
0.8963789063074552 1:0.0092446147 2:0.13608276 3:0.1327203 4:6 5:0 6:35 
0.2488763422239014 1:0.0092446147 2:0 3:0.13277451 4:6 5:0 6:141 
1 1:0.00013365708 2:0.33333333 3:0.15900278 4:3 5:0 6:5 
1 1:0.17402152 2:0.10050378 3:0.051123499 4:3 5:0 6:27 
1 1:0.0094451004 2:0 3:0.088209354 4:19 5:0 6:18 
0.309262361425836 1:4.455236e-05 2:0.18257419 3:0 4:16 5:0 6:228 
1 1:0.070749148 2:0.40824829 3:0 4:15 5:0 6:13 
1 1:0.00051235214 2:0.24618298 3:0 4:9 5:0 6:9 
1 1:2.227618e-05 2:0.28867513 3:0.05976143 4:12 5:0 6:68 
1 1:0.029337729 2:0.15430335 3:0.089991541 4:4 5:0 6:6 
1 1:0.00017820944 2:0 3:0.069885656 4:3 5:0 6:5 
1 1:0.17402152 2:0.13608276 3:0.099068728 4:2 5:0 6:7 
1 1:0.00017820944 2:0 3:0.11647609 4:2 5:0 6:2 
1 1:0.17402152 2:0.18257419 3:0.12777531 4:1 5:0 6:8 
1 1:0.00017820944 2:0.14433757 3:0.17264413 4:1 5:0 6:2 
1 1:0.00017820944 2:0 3:0.045175395 4:1 5:0 6:2 
1 1:0.17402152 2:0.15430335 3:0.11130452 4:1 5:0 6:3 
1 1:6.682854e-05 2:0.14433757 3:0.13999398 4:4 5:0 6:1 
1 1:0.0020716847 2:0.28867513 3:0.15848577 4:2 5:0 6:1 
1 1:0.011338576 2:0.16666667 3:0.098361482 4:7 5:0 6:29 
1 1:0.011338576 2:0.10206207 3:0.08735707 4:5 5:0 6:18 
1 1:0.011338576 2:0.14433757 3:0.11430461 4:4 5:0 6:37 
1 1:0.0042770266 2:0 3:0.1076244 4:1 5:0 6:2 
1 1:0.00060145686 2:0 3:0.081533265 4:6 5:0 6:7 
1 1:0.0014925041 2:0 3:0.15278308 4:7 5:0 6:55 
1 1:0.17402152 2:0.21081851 3:0.10174462 4:5 5:0 6:5 
1 1:0.029337729 2:0 3:0.1254089 4:4 5:0 6:8 
0.01436572167727312 1:0.00053462832 2:0.086066297 3:0 4:4 5:0 6:2212 
1 1:0.17402152 2:0.12598816 3:0.18931005 4:2 5:0 6:16 
0.3735981303062677 1:0.0085095008 2:0.16666667 3:0.10072659 4:18 5:0 6:129 
1 1:0.070749148 2:0.15430335 3:0 4:17 5:0 6:60 
0.4009571064942721 1:0.0077521107 2:0 3:0.10177042 4:17 5:0 6:156 
0.4034460955959658 1:0.0010915328 2:0 3:0 4:16 5:0 6:4399 
0.3237410633344628 1:0.0077521107 2:0 3:0.10976426 4:16 5:0 6:97 
0.4289709174462797 1:0.00060145686 2:0 3:0 4:13 5:0 6:1161 
1 1:0.070749148 2:0.15430335 3:0 4:12 5:0 6:60 
0.4293843777436725 1:0.00086877102 2:0.16666667 3:0 4:28 5:0 6:1344 
1 1:0.17402152 2:0 3:0 4:8 5:0 6:66 
1 1:0.17402152 2:0.25819889 3:0 4:8 5:0 6:24 
1 1:0.17402152 2:0.15430335 3:0 4:8 5:0 6:10 
1 1:0.00015593326 2:0.20412415 3:0 4:19 5:0 6:7 
1 1:0.00028959034 2:0.16666667 3:0 4:15 5:0 6:9 
0.2934700375308657 1:8.910472e-05 2:0 3:0 4:29 5:0 6:107 
1 1:2.227618e-05 2:0 3:0 4:6 5:0 6:23 
1 1:0.0001113809 2:0 3:0 4:5 5:0 6:31 
1 1:0.17402152 2:0.27216553 3:0.20733249 4:4 5:0 6:10 
0.2539540207158534 1:0.00053462832 2:0 3:0 4:4 5:0 6:2212 
0.9608218536733498 1:0.0065937493 2:0.11785113 3:0.21684081 4:2 5:0 6:21 
1 1:0.070749148 2:0.15430335 3:0.19246242 4:2 5:0 6:8 
1 1:0.0035641888 2:0.40824829 3:0.11506421 4:2 5:0 6:8 
1 1:0.0068387873 2:0.16666667 3:0.17399697 4:2 5:0 6:20 
1 1:0.17402152 2:0.14433757 3:0.12453451 4:2 5:0 6:10 
1 1:0.17402152 2:0.46291005 3:0.24354503 4:1 5:0 6:12 
0.3974556581867249 1:0.0032523223 2:0 3:0.19277108 4:20 5:0 6:274 
1 1:0.00098015192 2:0 3:0.1118552 4:1 5:0.5 6:2 
1 1:0.0010469805 2:0.28867513 3:0.15942249 4:1 5:0 6:9 
1 1:0.004455236 2:0.12309149 3:0.1434124 4:1 5:0 6:16 
1 1:0.070749148 2:0.24618298 3:0.28413586 4:0 5:0 6:5 
1 1:0.0065937493 2:0.12309149 3:0.20942979 4:0 5:0 6:18 
1 1:0.070749148 2:0.27216553 3:0.22402007 4:4 5:0 6:29 
1 1:0.070749148 2:0.14433757 3:0.15818713 4:4 5:0 6:25 
1 1:0.0065937493 2:0.15430335 3:0.22175729 4:10 5:0 6:47 
0.3509871368088799 1:0.00031186652 2:0.18257419 3:0.13849907 4:14 5:0 6:318 
1 1:0.00026731416 2:0.14433757 3:0.13019803 4:4 5:0.5 6:1 
0.3885838403770825 1:0.011338576 2:0.16666667 3:0.18110179 4:11 5:0 6:68 
1 1:0.011338576 2:0.13608276 3:0.21952852 4:10 5:0 6:85 
1 1:0.011338576 2:0.11785113 3:0.16978098 4:5 5:0 6:13 
1 1:0.011338576 2:0.14433757 3:0.14396444 4:3 5:0 6:20 
1 1:0.025439398 2:0.20412415 3:0.13658428 4:12 5:0 6:27 
1 1:0.025439398 2:0 3:0.245781 4:10 5:0 6:36 
1 1:0.025439398 2:0.27216553 3:0.17562282 4:8 5:0 6:42 
1 1:0.025439398 2:0.16666667 3:0.21518099 4:5 5:0 6:23 
1 1:0.025439398 2:0.27216553 3:0.2800692 4:1 5:0 6:6 
0.3457120336408638 1:0.0044130627 2:0.15430335 3:0 4:21 5:0 6:184 
0.6879777306000034 1:0.06972639 2:0 3:0.21866829 4:8 5:0 6:222 
1 1:0.0079435128 2:0.28571429 3:0.18771276 4:7 5:0 6:35 
0.4925072261500787 1:0.026478376 2:0.14285714 3:0.13794015 4:8 5:0 6:150 
1 1:0.0088261253 2:0.22792115 3:0.14910802 4:4 5:0 6:9 
1 1:0.0079435128 2:0 3:0.20225996 4:4 5:0 6:30 
0.1315310922084326 1:0.0079435128 2:0.37796447 3:0.18691479 4:3 5:0 6:34 
1 1:0.06972639 2:0.16903085 3:0.13874919 4:3 5:0 6:86 
1 1:0.0061782877 2:0 3:0.16000261 4:3 5:0 6:8 
1 1:0.0061782877 2:0 3:0.24174689 4:3 5:0.33333333 6:13 
1 1:0.0061782877 2:0.10910895 3:0.18115789 4:1 5:0.33333333 6:11 
0.2145149860814049 1:0.083848191 2:0 3:0.11638287 4:6 5:0 6:1605 
1 1:0.0079435128 2:0.21320072 3:0.16695677 4:4 5:0 6:14 
1 1:0.0079435128 2:0 3:0.14096334 4:4 5:0.28867513 6:11 
0.08556724618729944 1:0.0017652251 2:0.095346259 3:0.12123216 4:5 5:0.2236068 6:115 
1 1:0.06972639 2:0.30151134 3:0.10624254 4:2 5:0 6:5 
1 1:0.00088261253 2:0.26967994 3:0.21488612 4:2 5:0 6:6 
1 1:0.00088261253 2:0 3:0.12413982 4:1 5:0 6:8 
0.4285268894574089 1:0.0017652251 2:0 3:0.067151914 4:1 5:0 6:935 
1 1:0.0026478376 2:0 3:0.087754032 4:0 5:0 6:21 
1 1:0.00088261253 2:0.13483997 3:0.1947829 4:7 5:0 6:18 
1 1:0.00088261253 2:0.22792115 3:0.20329053 4:1 5:0 6:12 
0.03207193427468475 1:0.0017652251 2:0 3:0.13696357 4:3 5:0 6:164 
1 1:0.0026478376 2:0.18257419 3:0 4:13 5:0 6:122 
1 1:0.0017652251 2:0 3:0 4:12 5:0 6:26 
0.4282315069025708 1:0.0026478376 2:0 3:0.076016388 4:11 5:0 6:452 
0.04583629142494718 1:0.0026478376 2:0.14433757 3:0 4:10 5:0 6:169 
0.3697515535603383 1:0.0070609003 2:0 3:0.10599979 4:9 5:0 6:971 
0.4146321030486504 1:0.00088261253 2:0 3:0.032712245 4:12 5:0 6:860 
0.3882220824750805 1:0.00088261253 2:0.20412415 3:0 4:12 5:0 6:118 
0.1894899188692933 1:0.083848191 2:0.47140452 3:0.08244428 4:5 5:0 6:65 
1 1:0.083848191 2:0 3:0.11634988 4:1 5:0 6:9 
1 1:0.0070609003 2:0.33333333 3:0.16959966 4:1 5:0.40824829 6:11 
1 1:0.00088261253 2:0.33333333 3:0.12239801 4:3 5:0 6:20 
1 1:0.00088261253 2:0 3:0.12316062 4:4 5:0 6:4 
0.3977218641229966 1:0.0088261253 2:0 3:0 4:11 5:0 6:674 
0.4215179527694891 1:0.0088261253 2:0 3:0 4:10 5:0 6:669 
0.2910879381592253 1:0.0026478376 2:0 3:0 4:10 5:0 6:165 
0.2379338033407012 1:0.061782877 2:0 3:0 4:8 5:0 6:320 
0.3509266845041705 1:0.0088261253 2:0 3:0.10406509 4:8 5:0 6:265 
1 1:0.0017652251 2:0 3:0.16972503 4:7 5:0 6:7 
1 1:0.00088261253 2:0 3:0.10891067 4:7 5:0 6:20 
1 1:0.06972639 2:0 3:0.071905581 4:5 5:0 6:39 
0.02369053572383271 1:0.06972639 2:0 3:0.0316386 4:5 5:0 6:115 
1 1:0.00088261253 2:0 3:0.12409786 4:4 5:0 6:1 
1 1:0.030008826 2:0 3:0.09647146 4:3 5:0 6:17 
0.9552777553138069 1:0.06972639 2:0 3:0.14232534 4:3 5:0 6:32 
1 1:0.026478376 2:0 3:0.17516462 4:2 5:0 6:3 
1 1:0.0035304501 2:0 3:0.10406509 4:3 5:0 6:103 
1 1:0.0088261253 2:0.21821789 3:0 4:7 5:0 6:40 
1 1:0.00088261253 2:0 3:0.153393 4:8 5:0 6:18 
0.141161934495532 1:0.06972639 2:0 3:0.19777216 4:7 5:0 6:182 
0.2117477445757045 1:0.06972639 2:0 3:0.20487877 4:6 5:0 6:160 
1 1:0.06972639 2:0.3086067 3:0.23956771 4:6 5:0 6:70 
0.2791977567745073 1:0.0052956752 2:0 3:0.080845208 4:7 5:0 6:160 
1 1:0.0088261253 2:0.13363062 3:0.21257273 4:1 5:0 6:11 
1 1:0.083848191 2:0.18898224 3:0.20239529 4:1 5:0 6:9 
1 1:0.06972639 2:0.50709255 3:0.18293182 4:0 5:0.63245553 6:41 
1 1:0.012356575 2:0 3:0.10651074 4:3 5:0 6:14 
1 1:0.00088261253 2:0.11952286 3:0.18657963 4:2 5:0 6:5 
1 1:0.0052956752 2:0 3:0.23392213 4:4 5:0 6:12 
1 1:0.0061782877 2:0 3:0 4:9 5:0 6:80 
1 1:0.06972639 2:0 3:0.13128773 4:8 5:0 6:19 
1 1:0.026478376 2:0.15430335 3:0.080064077 4:8 5:0 6:11 
0.3510238027199509 1:0.0035304501 2:0.18898224 3:0.19645632 4:7 5:0 6:85 
1 1:0.0052956752 2:0 3:0 4:11 5:0 6:57 
1 1:0.0052956752 2:0.11952286 3:0.23330441 4:3 5:0 6:26 
1 1:0.00088261253 2:0 3:0.16263684 4:0 5:0.57735027 6:6 
1 1:0.0061782877 2:0.16903085 3:0.10904811 4:1 5:0 6:11 
1 1:0.026478376 2:0.2236068 3:0.09825015 4:7 5:0 6:327 
0.1007356626765533 1:0.0079435128 2:0 3:0.15149184 4:4 5:0 6:205 
1 1:0.013239188 2:0 3:0.11815293 4:4 5:0 6:37 
0.5375659712918321 1:0.06972639 2:0.1767767 3:0.13824371 4:3 5:0 6:185 
1 1:0.06972639 2:0 3:0.13935222 4:3 5:0 6:61 
1 1:0.013239188 2:0.25 3:0.12515051 4:3 5:0 6:7 
0.6396880279008748 1:0.06972639 2:0 3:0.12234711 4:2 5:0 6:52 
1 1:0.0017652251 2:0.2236068 3:0.15866577 4:2 5:0 6:5 
1 1:0.026478376 2:0 3:0.13164269 4:1 5:0 6:3 
1 1:0.026478376 2:0 3:0.15985652 4:1 5:0 6:6 
1 1:0.026478376 2:0.1767767 3:0.12670245 4:1 5:0 6:7 
1 1:0.0017652251 2:0.2236068 3:0.14470719 4:1 5:0 6:4 
1 1:0.0044130627 2:0.37796447 3:0.089514359 4:2 5:0 6:10 
1 1:0.0044130627 2:0 3:0.18074757 4:1 5:0.35355339 6:10 
1 1:0.00088261253 2:0.20412415 3:0.19377536 4:5 5:0 6:3 
0.4411411651102559 1:0.0070609003 2:0 3:0.049625347 4:9 5:0 6:57 
1 1:0.0070609003 2:0.72168784 3:0 4:9 5:0 6:84 
1 1:0.0052956752 2:0 3:0.15628816 4:7 5:0 6:12 
0.008498598237253581 1:0.034146341 2:0 3:0 4:10 5:0 6:167 
1 1:0.0048780488 2:0 3:0 4:4 5:0 6:25 
0.2333135060705523 1:0.0097560976 2:0 3:0 4:19 5:0 6:1337 
1 1:0.0097560976 2:0 3:0.11293261 4:4 5:0 6:14 
1 1:0.0048780488 2:0 3:0 4:3 5:0 6:5 
1 1:0.0048780488 2:0 3:0.093126615 4:1 5:0 6:4 
1 1:0.0097560976 2:0 3:0.4686662 4:2 5:0.35355339 6:1 
0.2666645853827817 1:0.0048780488 2:0 3:0.086075153 4:1 5:0 6:114 
0.3596404008551625 1:0.0017652251 2:0 3:0 4:19 5:0 6:200 
0.4285185632471437 1:0.0052956752 2:0 3:0 4:12 5:0 6:539 
0.1864982998077794 1:0.06972639 2:0 3:0 4:9 5:0 6:171 
1 1:0.00088261253 2:0 3:0.034110736 4:7 5:0 6:36 
1 1:0.00088261253 2:0 3:0.12501526 4:9 5:0 6:26 
1 1:0.0017652251 2:0 3:0.019466161 4:6 5:0 6:17 
0.2145150157663486 1:0.083848191 2:0 3:0.16946371 4:6 5:0 6:1605 
0.4478066594944344 1:0.0026478376 2:0 3:0.064358464 4:5 5:0 6:213 
1 1:0.00088261253 2:0 3:0.070041477 4:6 5:0 6:63 
1 1:0.00088261253 2:0.3086067 3:0.056033181 4:2 5:0 6:2 
1 1:0.00088261253 2:0.18257419 3:0.077420966 4:2 5:0 6:12 
0.04670235302244641 1:0.06972639 2:0.16666667 3:0.18283798 4:1 5:0.20412415 6:74 
1 1:0.00088261253 2:0 3:0.15602848 4:1 5:0.18898224 6:3 
1 1:0.0044130627 2:0 3:0.12104551 4:2 5:0 6:3 
0.2695365656401619 1:0.0044130627 2:0 3:0.084172562 4:10 5:0 6:268 
0.4293955041977447 1:0.00088261253 2:0 3:0.083390548 4:11 5:0 6:787 
1 1:0.00088261253 2:0 3:0 4:21 5:0 6:1 
0.302174963582176 1:0.0070609003 2:0.18257419 3:0.093572436 4:11 5:0 6:255 
0.3508871409371948 1:0.0079435128 2:0 3:0 4:8 5:0 6:1409 
1 1:0.00088261253 2:0 3:0.17779882 4:2 5:0 6:1 
0.008499730275512891 1:0.06972639 2:0.3086067 3:0.2366284 4:1 5:0 6:27 
1 1:0.0070609003 2:0.18257419 3:0.15141892 4:1 5:0 6:8 
0.6461850782044987 1:0.0052956752 2:0 3:0.20220777 4:7 5:0 6:148 
0.3128730801064067 1:0.0035304501 2:0 3:0.085140114 4:4 5:0 6:108 
1 1:0.0015360983 2:0.12909944 3:0 4:8 5:0.40824829 6:2 
1 1:0.0046082949 2:0 3:0 4:2 5:0 6:8 
1 1:0.0015360983 2:0 3:0 4:1 5:0 6:5 
1 1:0.0015360983 2:0.20412415 3:0 4:1 5:0 6:1 
0.4251079924551043 1:0.0017142857 2:0 3:0.034850752 4:10 5:0 6:200 
1 1:0.028571429 2:0.3086067 3:0.077960713 4:4 5:0 6:9 
1 1:0.028571429 2:0 3:0 4:4 5:0 6:11 
1 1:0.016571429 2:0.15430335 3:0.059989503 4:4 5:0 6:8 
0.115723779088392 1:0.0022857143 2:0.25197632 3:0 4:4 5:0 6:110 
1 1:0.0028571429 2:0 3:0 4:8 5:0 6:28 
0.1218182469700349 1:0.13428571 2:0 3:0 4:7 5:0 6:245 
1 1:0.00057142857 2:0 3:0 4:10 5:0 6:3 
0.3457421241031693 1:0.13428571 2:0 3:0 4:5 5:0 6:84 
1 1:0.00057142857 2:0.14433757 3:0 4:1 5:0.37796447 6:11 
1 1:0.042857143 2:0 3:0 4:0 5:0.43643578 6:15 
0.7325283617269975 1:0.042857143 2:0.125 3:0 4:0 5:0 6:35 
1 1:0.042857143 2:0.15811388 3:0 4:0 5:0.46291005 6:12 
1 1:0.13428571 2:0 3:0 4:0 5:0.53452248 6:16 
1 1:0.13428571 2:0.40089186 3:0 4:0 5:0.43643578 6:24 
0.1172997418600396 1:0.028 2:0 3:0 4:16 5:0 6:274 
1 1:0.00057142857 2:0 3:0 4:6 5:0 6:2 
1 1:0.13428571 2:0 3:0.041662648 4:4 5:0.25819889 6:100 
1 1:0.0017142857 2:0 3:0.07069654 4:1 5:0 6:23 
1 1:0.00057142857 2:0 3:0.097627206 4:1 5:0.4 6:2 
1 1:0.028 2:0 3:0.053605627 4:2 5:0 6:8 
1 1:0.13428571 2:0.18257419 3:0.099258333 4:2 5:0 6:59 
1 1:0.00040513167 2:0 3:0.088465174 4:2 5:0 6:20 
1 1:0.00040513167 2:0 3:0.098473193 4:2 5:0 6:20 
1 1:0.00013504389 2:0.12309149 3:0.13671719 4:1 5:0 6:2 
1 1:0.00040513167 2:0.15430335 3:0.19321836 4:1 5:0 6:11 
1 1:0.00040513167 2:0.13608276 3:0.11859989 4:1 5:0 6:6 
0.2284763798225317 1:0.00027008778 2:0 3:0.10363425 4:7 5:0 6:172 
0.2517357463430697 1:0.0013504389 2:0 3:0 4:10 5:0 6:140 
0.3611713594639138 1:0.0020256583 2:0.15430335 3:0.027031415 4:6 5:0 6:1068 
0.2360339832956191 1:0.015530047 2:0.37796447 3:0.18784519 4:1 5:0 6:84 
0.1690773545464921 1:0.015530047 2:0.46291005 3:0.17184851 4:1 5:0 6:162 
0.6213562064316511 1:0.015530047 2:0.37796447 3:0.12451742 4:1 5:0 6:91 
1 1:0.00054017556 2:0.13363062 3:0.11216913 4:1 5:0 6:2 
1 1:0.0035111411 2:0.37796447 3:0.14926645 4:1 5:0 6:8 
1 1:0.0039162728 2:0.18257419 3:0.07830154 4:10 5:0 6:52 
0.03438454014900851 1:0.057393653 2:0.2 3:0.10109201 4:8 5:0 6:117 
0.7062567663209893 1:0.057393653 2:0 3:0.056807638 4:5 5:0 6:43 
1 1:0.058068872 2:0.16903085 3:0.11624764 4:4 5:0 6:29 
0.2884223312829571 1:0.058068872 2:0.1490712 3:0.10156603 4:4 5:0 6:37 
1 1:0.00054017556 2:0.2236068 3:0.095920228 4:4 5:0.28867513 6:7 
0.2095623118526978 1:0.00027008778 2:0.23570226 3:0.19245009 4:9 5:0 6:595 
1 1:0.00013504389 2:0.16666667 3:0.10329663 4:6 5:0 6:1 
1 1:0.00040513167 2:0 3:0.068761416 4:5 5:0 6:9 
0.4291314158056905 1:0.00027008778 2:0 3:0.089087081 4:16 5:0 6:335 
1 1:0.00013504389 2:0 3:0.10706935 4:2 5:0 6:5 
1 1:0.00067521945 2:0.16666667 3:0.10063921 4:4 5:0 6:13 
1 1:0.00013504389 2:0 3:0.044444444 4:1 5:0 6:1 
1 1:0.00013504389 2:0.15430335 3:0.1665626 4:2 5:0 6:14 
1 1:0.00094530722 2:0.11785113 3:0.069289952 4:5 5:0 6:58 
0.3611868329544903 1:0.0049751244 2:0 3:0 4:3 5:0 6:1197 
1 1:0.014925373 2:0 3:0.042579972 4:2 5:0 6:11 
1 1:0.024875622 2:0.14285714 3:0.15702718 4:0 5:0 6:5 
1 1:0.0049751244 2:0.26726124 3:0 4:1 5:0 6:3 
0.4291263696919074 1:0.014925373 2:0 3:0.049147319 4:20 5:0 6:406 
1 1:0.0049751244 2:0 3:0 4:13 5:0 6:28 
0.4446545842288877 1:0.0099502488 2:0 3:0 4:13 5:0 6:303 
1 1:0.0049751244 2:0.20412415 3:0 4:11 5:0 6:12 
1 1:0.0049751244 2:0.36514837 3:0 4:9 5:0 6:13 
0.4290310704018229 1:0.014925373 2:0 3:0.070828825 4:35 5:0 6:487 
1 1:0.0049751244 2:0 3:0 4:12 5:0 6:10 
1 1:0.0049751244 2:0.14433757 3:0.15717365 4:10 5:0 6:2 
1 1:0.0049751244 2:0.20412415 3:0.068100522 4:13 5:0 6:14 
0.429395903066023 1:0.0049751244 2:0 3:0 4:44 5:0 6:48 
1 1:0.0049751244 2:0.18257419 3:0.080919286 4:1 5:0 6:1 
1 1:0.0099502488 2:0.13608276 3:0.057831493 4:1 5:0 6:3 
1 1:0.0049751244 2:0.20412415 3:0.093772897 4:2 5:0 6:9 
1 1:0.0049751244 2:0.15430335 3:0 4:8 5:0 6:25 
1 1:0.0049751244 2:0 3:0.09502684 4:8 5:0 6:34 
1 1:0.0099502488 2:0.20412415 3:0.11308282 4:5 5:0.33333333 6:29 
0.03173933154609139 1:0.024875622 2:0 3:0.12931515 4:6 5:0 6:89 
0.4290140013500554 1:0.0049751244 2:0 3:0.097058178 4:8 5:0 6:549 
0.9985713979716149 1:0.0049751244 2:0 3:0.13324272 4:6 5:0 6:76 
1 1:0.0049751244 2:0 3:0.15370726 4:4 5:0.25819889 6:16 
0.1461995378393933 1:0.0049751244 2:0.1490712 3:0 4:9 5:0 6:142 
1 1:0.0049751244 2:0 3:0.080451799 4:8 5:0 6:38 
0.4224177420754274 1:0.0049751244 2:0.16903085 3:0.013746435 4:2 5:0 6:357 
1 1:0.0049751244 2:0 3:0 4:14 5:0 6:73 
1 1:0.0049751244 2:0 3:0.31212739 4:7 5:0 6:29 
1 1:0.0049751244 2:0 3:0.20412415 4:2 5:0.33333333 6:3 
1 1:0.0049751244 2:0.13363062 3:0.1028689 4:3 5:0 6:3 
1 1:0.0049751244 2:0 3:0.20064309 4:4 5:0.40824829 6:6 
0.4290299682588484 1:0.0049751244 2:0 3:0 4:24 5:0 6:905 
0.3472455331010631 1:0.0049751244 2:0 3:0.090721842 4:8 5:0 6:655 
1 1:0.0049751244 2:0 3:0.085125653 4:8 5:0 6:123 
1 1:0.024875622 2:0.31622777 3:0.088045091 4:2 5:0 6:1 
0.6198745503995875 1:0.0049751244 2:0.11111111 3:0.20515248 4:2 5:0 6:72 
1 1:0.0049751244 2:0.22222222 3:0 4:2 5:0 6:3 
1 1:0.0049751244 2:0.23570226 3:0.10721125 4:3 5:0 6:1 
1 1:0.0049751244 2:0.1490712 3:0.063757671 4:2 5:0 6:2 
1 1:0.0086500873 2:0 3:0.046880723 4:19 5:0 6:63 
1 1:0.00041586958 2:0 3:0 4:14 5:0 6:13 
1 1:0.012060218 2:0.37796447 3:0.14798801 4:4 5:0 6:61 
1 1:0.000998087 2:0.2236068 3:0.18116433 4:3 5:0 6:7 
0.3732845090406707 1:0.0037393162 2:0 3:0 4:12 5:0 6:4399 
1 1:0.037571225 2:0.3086067 3:0.20081495 4:6 5:0 6:21 
0.4291831044657601 1:0.01264245 2:0 3:0.093761446 4:19 5:0 6:1859 
0.2967963764581827 1:0.0030270655 2:0 3:0.044474959 4:9 5:0 6:245 
1 1:0.0030721966 2:0.28867513 3:0 4:2 5:0 6:2 
1 1:0.10626703 2:0 3:0 4:6 5:0 6:3 
1 1:0.10626703 2:0 3:0 4:4 5:0 6:1 
1 1:0.10626703 2:0 3:0 4:2 5:0 6:4 
0.2512225466024448 1:0.10626703 2:0.37796447 3:0 4:2 5:0 6:33 
1 1:0.025612545 2:0 3:0 4:14 5:0 6:7 
1 1:0.026657955 2:0 3:0 4:14 5:0 6:33 
1 1:0.072329304 2:0 3:0.15386864 4:13 5:0 6:42 
1 1:0.00091473375 2:0 3:0 4:12 5:0 6:32 
1 1:0.03240771 2:0 3:0 4:12 5:0 6:18 
1 1:0.072329304 2:0 3:0.093458397 4:11 5:0 6:35 
1 1:0.00032669062 2:0 3:0.097544858 4:16 5:0 6:109 
1 1:0.00104541 2:0 3:0.061971773 4:12 5:0 6:49 
1 1:0.016073179 2:0 3:0.070774404 4:10 5:0 6:12 
1 1:0.0011760862 2:0 3:0.085420308 4:8 5:0 6:74 
0.8962591410084244 1:6.5338125e-05 2:0 3:0.069205084 4:9 5:0 6:25 
1 1:0.00019601437 2:0 3:0.017962703 4:8 5:0 6:71 
1 1:0.0022214962 2:0 3:0.13366326 4:7 5:0 6:8 
1 1:0.042404443 2:0 3:0.11600671 4:6 5:0 6:62 
1 1:0.000522705 2:0 3:0.072438776 4:6 5:0 6:14 
1 1:0.0045083306 2:0 3:0.091615974 4:6 5:0 6:8 
1 1:0.00091473375 2:0 3:0.040697846 4:6 5:0 6:15 
0.6924983968144681 1:0.00091473375 2:0 3:0.12674146 4:6 5:0.36514837 6:49 
1 1:0.072329304 2:0 3:0.16279139 4:6 5:0 6:15 
1 1:0.025612545 2:0 3:0.029787773 4:4 5:0.31622777 6:17 
1 1:0.0012414244 2:0 3:0.087567823 4:4 5:0 6:13 
1 1:0.03240771 2:0.1490712 3:0.19362053 4:3 5:0 6:4 
1 1:0.0039856256 2:0.18257419 3:0.17979113 4:4 5:0.36514837 6:9 
1 1:0.00013067625 2:0 3:0.093531497 4:3 5:0 6:2 
1 1:6.5338125e-05 2:0.16903085 3:0.10146548 4:3 5:0 6:2 
1 1:0.0018294675 2:0 3:0.1009072 4:2 5:0 6:4 
1 1:0.03240771 2:0 3:0.24063297 4:2 5:0.2236068 6:2 
1 1:0.0011107481 2:0.1490712 3:0.13925158 4:5 5:0 6:8 
1 1:0.000522705 2:0 3:0.089235931 4:2 5:0.23904572 6:10 
1 1:0.00032669062 2:0 3:0.14388862 4:2 5:0.2 6:3 
1 1:0.0018294675 2:0.18257419 3:0.17693601 4:1 5:0.36514837 6:4 
1 1:0.0039856256 2:0.16903085 3:0.11033546 4:1 5:0.4472136 6:4 
1 1:6.5338125e-05 2:0.18257419 3:0.10194589 4:3 5:0.16903085 6:6 
1 1:0.00045736687 2:0.15811388 3:0.12260121 4:7 5:0 6:7 
1 1:0.000522705 2:0 3:0.17962703 4:5 5:0.4472136 6:10 
0.5622808194634628 1:0.0015027769 2:0 3:0.22760467 4:5 5:0.26967994 6:49 
0.4232252443558282 1:0.010899183 2:0 3:0.083333333 4:5 5:0 6:375 
0.429193589875761 1:0.0054495913 2:0 3:0 4:20 5:0 6:1344 
1 1:0.0027247956 2:0.16666667 3:0 4:3 5:0 6:10 
1 1:0.019073569 2:0 3:0.12344268 4:1 5:0 6:16 
1 1:0.029972752 2:0.13608276 3:0.14293008 4:6 5:0 6:24 
0.6040395263249546 1:0.10626703 2:0.2236068 3:0 4:13 5:0 6:199 
1 1:0.10626703 2:0.15811388 3:0 4:0 5:0 6:7 
0.3344509246174179 1:0.0054495913 2:0.25819889 3:0.20628425 4:3 5:0 6:143 
1 1:0.013623978 2:0.2 3:0.094950022 4:3 5:0 6:1 
1 1:0.0081743869 2:0.1490712 3:0.12240718 4:2 5:0 6:13 
0.3637658830349416 1:0.010899183 2:0 3:0 4:14 5:0 6:192 
0.3798736422210731 1:0.0027247956 2:0.16903085 3:0 4:16 5:0 6:109 
0.8466460875203941 1:0.0054495913 2:0 3:0 4:12 5:0 6:64 
0.4293991284743711 1:0.0054495913 2:0.16666667 3:0 4:7 5:0 6:915 
0.1276417727406351 1:0.0054495913 2:0 3:0 4:2 5:0 6:229 
0.4293631480809803 1:0.0054495913 2:0 3:0 4:1 5:0 6:335 
1 1:0.0027247956 2:0.12909944 3:0.069337525 4:1 5:0 6:59 
0.3888586069221718 1:0.0027247956 2:0 3:0 4:1 5:0 6:109 
1 1:0.0036764706 2:0 3:0 4:8 5:0 6:25 
0.2331342298162716 1:0.0036764706 2:0 3:0 4:9 5:0 6:2518 
1 1:0.044117647 2:0.2 3:0.14990135 4:3 5:0 6:29 
1 1:0.0073529412 2:0 3:0.064533591 4:3 5:0 6:8 
1 1:0.0036764706 2:0.46291005 3:0 4:16 5:0 6:21 
0.4228028510781502 1:0.029411765 2:0.6172134 3:0.19007487 4:27 5:0 6:281 
1 1:0.0036764706 2:0.46291005 3:0.11946954 4:9 5:0 6:13 
1 1:0.0036764706 2:0.15430335 3:0 4:12 5:0 6:3 
1 1:0.0036764706 2:0.15430335 3:0.22343446 4:8 5:0 6:4 
1 1:0.0036764706 2:0.50395263 3:0 4:4 5:0 6:4 
1 1:0.0036764706 2:0 3:0.16570343 4:3 5:0 6:34 
1 1:0.0036764706 2:0 3:0.21296637 4:6 5:0 6:4 
1 1:0.0036764706 2:0 3:0 4:22 5:0 6:65 
0.4288698516750911 1:0.022058824 2:0 3:0.12309149 4:22 5:0 6:341 
1 1:0.018382353 2:0 3:0 4:14 5:0 6:45 
0.7618403568706771 1:0.033088235 2:0 3:0.13301622 4:8 5:0 6:93 
1 1:0.0073529412 2:0.16903085 3:0.1823492 4:7 5:0 6:16 
1 1:0.025735294 2:0.18257419 3:0.06023386 4:7 5:0 6:41 
1 1:0.044117647 2:0 3:0.14458881 4:3 5:0 6:10 
1 1:0.0036764706 2:0 3:0.11561466 4:2 5:0 6:1 
0.1242276119624689 1:0.058823529 2:0 3:0.11081833 4:1 5:0 6:95 
1 1:0.0073529412 2:0 3:0.15152288 4:1 5:0 6:8 
0.1644435836370868 1:0.011029412 2:0.2236068 3:0.27348302 4:2 5:0 6:24 
1 1:0.0073529412 2:0.1490712 3:0.26015196 4:3 5:0 6:9 
0.3615871530479097 1:0.022058824 2:0.23570226 3:0 4:28 5:0 6:104 
0.302266035069507 1:0.0625 2:0 3:0.20892772 4:7 5:0 6:234 
0.3508527738520737 1:0.0036764706 2:0 3:0 4:29 5:0 6:1843 
0.8628940811345401 1:0.018382353 2:0 3:0.16152393 4:7 5:0 6:69 
1 1:0.095588235 2:0 3:0 4:8 5:0 6:28 
0.4012282132681117 1:0.0036764706 2:0.40824829 3:0 4:7 5:0 6:381 
0.2539291284164463 1:0.025735294 2:0.36514837 3:0.24000392 4:7 5:0 6:810 
0.3456492296820072 1:0.025735294 2:0.18257419 3:0.15316792 4:5 5:0 6:93 
1 1:0.095588235 2:0.36514837 3:0.1177603 4:2 5:0 6:8 
0.137009308903682 1:0.095588235 2:0.3086067 3:0.29529808 4:6 5:0 6:234 
1 1:0.0036764706 2:0 3:0.080582296 4:5 5:0 6:11 
0.0007079761214720606 1:0.0073529412 2:0.20412415 3:0.1573133 4:3 5:0 6:230 
1 1:0.011029412 2:0.15430335 3:0.15559398 4:4 5:0 6:6 
0.1981994055311589 1:0.0625 2:0.15430335 3:0.13089583 4:8 5:0 6:340 
0.429249208678903 1:0.014705882 2:0 3:0.15228623 4:6 5:0 6:639 
0.009071112745994901 1:0.058823529 2:0 3:0.096225045 4:5 5:0 6:183 
0.171323272304043 1:0.025735294 2:0 3:0.125294 4:5 5:0 6:274 
0.07883719551693544 1:0.033088235 2:0.5 3:0.15006449 4:4 5:0 6:13 
0.1891349273253029 1:0.029411765 2:0.15430335 3:0.11822941 4:3 5:0 6:341 
1 1:0.018382353 2:0.16666667 3:0 4:4 5:0 6:27 
1 1:0.0073529412 2:0.18257419 3:0.16414979 4:0 5:0.4472136 6:6 
1 1:0.0073529412 2:0.40824829 3:0.14501849 4:3 5:0 6:11 
0.3400188760996468 1:0.014705882 2:0.18898224 3:0.21419182 4:6 5:0 6:540 
0.5120216108826954 1:0.0036764706 2:0 3:0.14547859 4:4 5:0 6:54 
0.3470140218519804 1:0.014705882 2:0.3086067 3:0.26371827 4:3 5:0 6:51 
1 1:0.033088235 2:0.21821789 3:0.048365083 4:2 5:0 6:7 
0.5549273392120648 1:0.095588235 2:0.18898224 3:0.15396007 4:5 5:0 6:96 
1 1:0.011029412 2:0.16903085 3:0.15913201 4:2 5:0 6:9 
1 1:0.0036764706 2:0 3:0 4:14 5:0 6:11 
0.3875596051647833 1:0.0036764706 2:0 3:0.16880028 4:7 5:0 6:385 
0.1638531537785166 1:0.0036764706 2:0 3:0.11549489 4:7 5:0 6:175 
0.2413102271203717 1:0.022058824 2:0 3:0.18294043 4:5 5:0 6:418 
1 1:0.0036764706 2:0 3:0.1705514 4:3 5:0.40824829 6:8 
1 1:0.0036764706 2:0 3:0 4:1 5:0 6:2 
1 1:0.0625 2:0 3:0 4:7 5:0 6:7 
0.007657618441961334 1:0.058823529 2:0 3:0 4:5 5:0 6:116 
0.2289095760412491 1:0.044117647 2:0.33333333 3:0.20124612 4:4 5:0 6:63 
0.460011422979597 1:0.029411765 2:0 3:0.083747828 4:3 5:0 6:341 
0.7710808571090435 1:0.0625 2:0 3:0.01159581 4:21 5:0 6:62 
0.4292265226330248 1:0.0625 2:0 3:0.10944867 4:18 5:0 6:1152 
1 1:0.0625 2:0 3:0.12356985 4:13 5:0 6:25 
0.4293565056437014 1:0.018382353 2:0 3:0.11011028 4:33 5:0 6:633 
0.4371495260503265 1:0.0625 2:0 3:0.0406782 4:27 5:0 6:271 
0.4293492445809649 1:0.0625 2:0 3:0.085775039 4:24 5:0 6:1596 
1 1:0.0036764706 2:0 3:0 4:19 5:0 6:2 
0.2731989548790432 1:0.0036764706 2:0 3:0 4:13 5:0 6:136 
1 1:0.0036764706 2:0.25819889 3:0 4:11 5:0 6:4 
1 1:0.029411765 2:0 3:0.099136319 4:4 5:0 6:5 
0.7809711733001974 1:0.0625 2:0.18257419 3:0.14200939 4:12 5:0 6:217 
0.06924546020883517 1:0.0625 2:0.2236068 3:0.20889319 4:10 5:0 6:163 
1 1:0.095588235 2:0.4472136 3:0 4:10 5:0 6:145 
1 1:0.095588235 2:0.1490712 3:0 4:9 5:0 6:29 
0.06064315873008984 1:0.095588235 2:0 3:0 4:8 5:0 6:111 
0.170778662347008 1:0.0036764706 2:0 3:0.052075564 4:5 5:0 6:175 
0.2788555564063272 1:0.029411765 2:0.2 3:0.10590573 4:3 5:0 6:23 
1 1:0.095588235 2:0.25819889 3:0.073922127 4:5 5:0 6:99 
1 1:0.0073529412 2:0 3:0.12 4:3 5:0 6:13 
1 1:0.0055762082 2:0.11111111 3:0 4:5 5:0 6:19 
0.8702004778366886 1:0.0018587361 2:0 3:0 4:8 5:0 6:48 
0.3512435986578964 1:0.020446097 2:0 3:0 4:26 5:0 6:1843 
0.4293277903443129 1:0.0018587361 2:0 3:0 4:4 5:0 6:864 
1 1:0.0074349442 2:0 3:0.066354064 4:8 5:0 6:106 
0.1970816724273001 1:0.0037174721 2:0.18898224 3:0.15325151 4:5 5:0 6:181 
1 1:0.072133963 2:0.26726124 3:0 4:8 5:0 6:5 
1 1:0.072133963 2:0.28867513 3:0 4:8 5:0 6:7 
0.4290275461338072 1:0.00243309 2:0 3:0 4:6 5:0 6:488 
1 1:0.016172893 2:0 3:0 4:6 5:0 6:3 
1 1:0.016172893 2:0 3:0 4:5 5:0 6:1 
1 1:0.016172893 2:0 3:0 4:2 5:0 6:2 
1 1:0.12036639 2:0.53452248 3:0 4:1 5:0 6:17 
1 1:0.00042936883 2:0 3:0 4:12 5:0 6:2 
0.2231310063513595 1:0.009875483 2:0 3:0 4:10 5:0 6:128 
0.08399612608035568 1:0.014169171 2:0.31622777 3:0 4:7 5:0 6:43 
1 1:0.014169171 2:0.14433757 3:0 4:7 5:0 6:7 
1 1:0.014169171 2:0.1767767 3:0 4:6 5:0 6:101 
1 1:0.014312294 2:0.23570226 3:0 4:4 5:0 6:14 
1 1:0.00071561471 2:0 3:0 4:2 5:0 6:6 
1 1:0.064834693 2:0.23570226 3:0 4:1 5:0 6:7 
1 1:0.028910834 2:0.10660036 3:0 4:1 5:0 6:1 
1 1:0.018605983 2:0.14433757 3:0 4:1 5:0 6:10 
1 1:0.018605983 2:0.31622777 3:0 4:0 5:0 6:9 
1 1:0.072133963 2:0.15811388 3:0 4:11 5:0 6:29 
1 1:0.0015743524 2:0.3354102 3:0 4:8 5:0 6:15 
1 1:0.00014312294 2:0.15811388 3:0 4:7 5:0 6:6 
0.1212587686881835 1:0.025619007 2:0 3:0 4:5 5:0 6:146 
0.6363647240112822 1:0.064834693 2:0.23570226 3:0 4:5 5:0 6:150 
0.4284764811389661 1:0.00085873766 2:0.23570226 3:0 4:1 5:0 6:321 
0.259223024160406 1:0.072133963 2:0.23570226 3:0 4:13 5:0 6:208 
1 1:0.00014312294 2:0.15430335 3:0 4:0 5:0 6:2 
1 1:0.0020037212 2:0 3:0 4:8 5:0 6:2 
0.3641911398301132 1:0.12036639 2:0 3:0 4:1 5:0 6:100 
1 1:0.028910834 2:0 3:0 4:1 5:0 6:31 
1 1:0.028910834 2:0 3:0 4:0 5:0 6:18 
1 1:0.028910834 2:0 3:0 4:0 5:0 6:14 
0.4292346163869902 1:0.0057249177 2:0 3:0 4:14 5:0 6:7753 
0.4014768898736125 1:0.0047230571 2:0.2236068 3:0 4:19 5:0 6:1917 
1 1:0.0015743524 2:0.15811388 3:0 4:1 5:0.25819889 6:8 
1 1:0.014312294 2:0.75 3:0 4:7 5:0 6:8 
0.4593305786114215 1:0.00014312294 2:0 3:0 4:5 5:0.40824829 6:83 
1 1:0.01216545 2:0 3:0 4:3 5:0 6:14 
1 1:0.12036639 2:0.5 3:0 4:1 5:0 6:8 
1 1:0.00058221742 2:0 3:0.11710801 4:10 5:0 6:1 
1 1:0.00024952175 2:0 3:0.080697004 4:3 5:0 6:4 
0.3150376650714294 1:0.0046082949 2:0 3:0 4:19 5:0 6:186 
1 1:0.0030721966 2:0 3:0 4:8 5:0 6:33 
1 1:0.0015360983 2:0.36514837 3:0 4:5 5:0 6:4 
0.4507391480688684 1:0.0030774349 2:0 3:0.14244246 4:12 5:0 6:239 
1 1:8.3173917e-05 2:0 3:0.22700174 4:3 5:0 6:11 
1 1:0.00016634783 2:0.11952286 3:0 4:8 5:0 6:8 
0.503532489654331 1:0.0084005656 2:0 3:0.062402572 4:4 5:0 6:41 
1 1:8.3173917e-05 2:0.25819889 3:0.059628479 4:4 5:0 6:3 
1 1:0.00024952175 2:0.28284271 3:0.22427131 4:7 5:0 6:2 
1 1:8.3173917e-05 2:0.12909944 3:0.053708616 4:3 5:0 6:1 
1 1:0.00016634783 2:0.23904572 3:0.12097168 4:3 5:0 6:11 
1 1:0.00016634783 2:0.12909944 3:0.09860133 4:1 5:0 6:2 
1 1:8.3173917e-05 2:0 3:0 4:16 5:0 6:29 
1 1:0.0004990435 2:0.56568542 3:0.53074489 4:1 5:0 6:1 
1 1:0.000998087 2:0.33333333 3:0 4:6 5:0 6:47 
1 1:8.3173917e-05 2:0.18898224 3:0 4:6 5:0 6:14 
1 1:8.3173917e-05 2:0.25 3:0 4:2 5:0 6:3 
1 1:0.00074856525 2:0.1767767 3:0.15389675 4:1 5:0 6:7 
1 1:0.00016634783 2:0.37796447 3:0.17167902 4:1 5:0 6:1 
1 1:0.00033269567 2:0.2236068 3:0.17680489 4:1 5:0 6:2 
1 1:0.00016634783 2:0.28867513 3:0.11296201 4:3 5:0 6:4 
1 1:0.0036596523 2:0 3:0.087581131 4:4 5:0 6:48 
0.4292656913391767 1:0.0011644348 2:0.16666667 3:0.13159034 4:14 5:0 6:629 
1 1:0.00024952175 2:0 3:0 4:9 5:0 6:14 
1 1:0.00016634783 2:0.33333333 3:0 4:4 5:0 6:15 
1 1:0.0037428262 2:0 3:0.12049067 4:2 5:0 6:15 
1 1:0.0024120436 2:0.37796447 3:0 4:17 5:0 6:69 
1 1:8.3173917e-05 2:0 3:0 4:15 5:0 6:5 
1 1:0.00024952175 2:0.16903085 3:0.023338001 4:5 5:0 6:1 
1 1:0.00024952175 2:0.25 3:0.13722624 4:4 5:0 6:14 
1 1:0.00091491308 2:0.20412415 3:0.099772384 4:9 5:0 6:7 
1 1:0.00024952175 2:0 3:0.24388805 4:8 5:0 6:19 
1 1:0.00023487962 2:0.50709255 3:0 4:23 5:0 6:20 
1 1:0.094421609 2:0 3:0 4:19 5:0 6:39 
0.4292065270878144 1:0.00011743981 2:0 3:0 4:18 5:0 6:1145 
1 1:0.00011743981 2:0.3380617 3:0 4:15 5:0 6:3 
1 1:0.0039929536 2:0.14285714 3:0 4:28 5:0 6:23 
1 1:0.00011743981 2:0.14285714 3:0.072420682 4:15 5:0 6:6 
1 1:0.00070463887 2:0.28571429 3:0.19327784 4:7 5:0 6:22 
1 1:0.00011743981 2:0.13363062 3:0.086671906 4:6 5:0 6:1 
1 1:0.00011743981 2:0 3:0.13655775 4:5 5:0 6:14 
1 1:0.00023487962 2:0.26726124 3:0.10878566 4:4 5:0 6:1 
1 1:0.0095126248 2:0 3:0.013282661 4:15 5:0 6:19 
1 1:0.0011743981 2:0.28571429 3:0.22739701 4:11 5:0 6:19 
1 1:0.0011743981 2:0.15430335 3:0.10482848 4:6 5:0 6:9 
1 1:0.097595474 2:0 3:0 4:12 5:0 6:74 
0.397018356587471 1:0.12871287 2:0 3:0 4:2 5:0 6:72 
1 1:0.097595474 2:0 3:0 4:1 5:0 6:10 
1 1:0.0043859649 2:0.15430335 3:0 4:14 5:0 6:16 
0.1276940183429698 1:0.0073099415 2:0.47140452 3:0 4:13 5:0 6:114 
1 1:0.021929825 2:0.57735027 3:0 4:9 5:0 6:1 
1 1:0.067251462 2:0.16666667 3:0 4:8 5:0 6:7 
1 1:0.067251462 2:0.3086067 3:0 4:7 5:0 6:3 
1 1:0.089181287 2:0.40824829 3:0 4:5 5:0.40824829 6:2 
1 1:0.089181287 2:0.4330127 3:0 4:5 5:0 6:1 
1 1:0.067251462 2:0.3086067 3:0 4:4 5:0.40824829 6:11 
1 1:0.067251462 2:0.49236596 3:0.17075312 4:3 5:0 6:2 
1 1:0.0029239766 2:0.66666667 3:0 4:6 5:0 6:17 
0.3978765544476662 1:0.00051572976 2:0.20412415 3:0 4:5 5:0 6:2216 
0.3849633356470644 1:0.0051572976 2:0 3:0 4:5 5:0 6:572 
0.4226728865782952 1:0.0025786488 2:0 3:0.098473193 4:4 5:0 6:670 
0.2297579680377826 1:0.00051572976 2:0 3:0 4:4 5:0 6:228 
1 1:0.00051572976 2:0.35355339 3:0.10830607 4:3 5:0 6:60 
0.3618045450335847 1:0.0010314595 2:0.28867513 3:0 4:3 5:0 6:434 
0.73544672994802 1:0.18102114 2:0 3:0 4:2 5:0 6:70 
0.04395487661583811 1:0.025786488 2:0.25 3:0.090909091 4:3 5:0 6:116 
1 1:0.067251462 2:0.18257419 3:0 4:9 5:0 6:16 
0.05925688250284919 1:0.0014619883 2:0.2236068 3:0.14070529 4:7 5:0 6:335 
1 1:0.033625731 2:0.16903085 3:0 4:16 5:0 6:18 
1 1:0.0029239766 2:0.28571429 3:0 4:8 5:0 6:346 
1 1:0.033625731 2:0.3086067 3:0 4:6 5:0 6:3 
1 1:0.067251462 2:0.15430335 3:0 4:6 5:0 6:3 
1 1:0.033625731 2:0.25197632 3:0 4:6 5:0 6:10 
1 1:0.033625731 2:0.18898224 3:0 4:5 5:0 6:13 
1 1:0.033625731 2:0.50709255 3:0 4:4 5:0 6:24 
1 1:0.033625731 2:0.50709255 3:0 4:3 5:0 6:8 
1 1:0.089181287 2:0.12598816 3:0 4:3 5:0 6:1 
1 1:0.033625731 2:0.26726124 3:0 4:2 5:0 6:1 
1 1:0.033625731 2:0.26726124 3:0 4:2 5:0 6:2 
1 1:0.033625731 2:0.37796447 3:0 4:2 5:0 6:2 
1 1:0.0014619883 2:0.18898224 3:0.10803395 4:9 5:0 6:43 
0.6436726351452686 1:0.013157895 2:0.16903085 3:0.12187874 4:6 5:0 6:33 
1 1:0.026315789 2:0 3:0.048186942 4:5 5:0 6:5 
1 1:0.026315789 2:0.13363062 3:0.15957673 4:5 5:0 6:6 
0.1355643585392738 1:0.026315789 2:0.16903085 3:0.14269545 4:7 5:0 6:183 
0.43432932247804 1:0.0014619883 2:0 3:0.083819813 4:8 5:0 6:525 
0.1922814254745593 1:0.0014619883 2:0.16666667 3:0.1355239 4:2 5:0 6:122 
0.4124458150702744 1:0.054977712 2:0.14433757 3:0.10526613 4:7 5:0 6:591 
1 1:0.054977712 2:0.13363062 3:0.13005122 4:4 5:0 6:425 
0.1062806147304097 1:0.0044576523 2:0.1767767 3:0.13774009 4:2 5:0 6:69 
0.5914796468254533 1:0.037147103 2:0.35355339 3:0 4:9 5:0 6:126 
0.3166422807966864 1:0.093610698 2:0 3:0.14213381 4:4 5:0 6:50 
1 1:0.016779722 2:0 3:0.087463929 4:6 5:0 6:110 
1 1:0.013566583 2:0 3:0.11010319 4:5 5:0 6:105 
1 1:0.16958229 2:0 3:0.16019235 4:4 5:0 6:47 
1 1:0.0035701535 2:0.18257419 3:0.1936992 4:4 5:0 6:14 
1 1:0.0035701535 2:0 3:0.12888482 4:2 5:0 6:10 
1 1:0.0007140307 2:0.16666667 3:0.10565411 4:2 5:0 6:9 
0.2735437535454696 1:0.0019851117 2:0 3:0.066778056 4:8 5:0 6:312 
0.4295245793515762 1:0.00099255583 2:0.28867513 3:0.054446551 4:12 5:0 6:933 
1 1:0.0029776675 2:0 3:0 4:8 5:0.51639778 6:23 
0.2760287855112931 1:0.00049627792 2:0 3:0.068791916 4:3 5:0 6:310 
0.7730148458104913 1:0.00049627792 2:0 3:0.15478181 4:3 5:0 6:158 
1 1:0.00099255583 2:0.1767767 3:0.14287172 4:2 5:0 6:94 
1 1:0.0039702233 2:0 3:0.073720978 4:1 5:0 6:7 
1 1:0.0029776675 2:0.18898224 3:0.13543408 4:2 5:0 6:12 
0.8291798895626371 1:0.00099255583 2:0.2236068 3:0 4:1 5:0 6:105 
0.3036131227150742 1:0.0019851117 2:0 3:0.13355611 4:4 5:0 6:295 
1 1:0.0039702233 2:0 3:0.024922239 4:8 5:0 6:26 
1 1:0.010918114 2:0 3:0.055727821 4:4 5:0 6:38 
0.08856651999584315 1:0.0039702233 2:0.28867513 3:0.10531568 4:2 5:0.81649658 6:56 
1 1:0.010918114 2:0 3:0.11058147 4:1 5:0 6:12 
1 1:0.0084367246 2:0 3:0.17025131 4:0 5:0 6:4 
1 1:0.0084367246 2:0 3:0.2584539 4:0 5:0.5 6:7 
1 1:0.00049627792 2:0 3:0.079524277 4:0 5:0 6:3 
1 1:0.0029776675 2:0 3:0.2053308 4:2 5:0 6:14 
0.361576634968489 1:0.0014888337 2:0 3:0.10925356 4:22 5:0 6:201 
1 1:0.00049627792 2:0 3:0 4:20 5:0 6:24 
1 1:0.00099255583 2:0 3:0.16540725 4:19 5:0 6:21 
0.4077205634587813 1:0.00049627792 2:0 3:0 4:18 5:0 6:193 
1 1:0.0034739454 2:0 3:0.065398252 4:18 5:0 6:7 
1 1:0.0034739454 2:0.14433757 3:0.083717924 4:18 5:0 6:7 
1 1:0.0014888337 2:0.20412415 3:0 4:17 5:0 6:2 
1 1:0.0039702233 2:0 3:0 4:17 5:0 6:74 
1 1:0.0014888337 2:0 3:0 4:14 5:0 6:7 
0.5556266393261713 1:0.02133995 2:0.16666667 3:0.079689497 4:12 5:0 6:162 
1 1:0.00099255583 2:0 3:0.13957716 4:18 5:0 6:97 
1 1:0.057568238 2:0 3:0 4:8 5:0 6:22 
1 1:0.00049627792 2:0 3:0 4:10 5:0 6:11 
1 1:0.00049627792 2:0.3086067 3:0.25734955 4:5 5:0.40824829 6:14 
1 1:0.02133995 2:0 3:0.090914961 4:4 5:0 6:50 
1 1:0.057568238 2:0.23570226 3:0.14207403 4:5 5:0 6:3 
1 1:0.005955335 2:0 3:0.15744791 4:4 5:0.25819889 6:16 
1 1:0.0019851117 2:0 3:0.039590379 4:4 5:0 6:8 
1 1:0.00049627792 2:0 3:0.17070132 4:2 5:0.57735027 6:6 
1 1:0.00049627792 2:0 3:0.28142954 4:2 5:0.40824829 6:6 
0.268615302647941 1:0.031265509 2:0 3:0 4:17 5:0 6:272 
0.6301340998077705 1:0.031265509 2:0 3:0 4:13 5:0 6:116 
1 1:0.031265509 2:0 3:0 4:13 5:0 6:33 
1 1:0.02133995 2:0 3:0.065171824 4:12 5:0 6:31 
0.3268674919413032 1:0.00049627792 2:0 3:0 4:12 5:0 6:185 
1 1:0.057568238 2:0 3:0.078038341 4:5 5:0 6:18 
0.523785977201401 1:0.011414392 2:0 3:0.095563697 4:6 5:0 6:42 
1 1:0.0019851117 2:0 3:0.12962963 4:7 5:0 6:12 
1 1:0.0019851117 2:0 3:0.066226618 4:7 5:0 6:14 
1 1:0.005955335 2:0 3:0 4:16 5:0 6:24 
1 1:0.013895782 2:0 3:0.15061602 4:7 5:0 6:8 
1 1:0.0034739454 2:0 3:0 4:18 5:0 6:29 
1 1:0.0034739454 2:0 3:0 4:18 5:0 6:20 
1 1:0.0019851117 2:0 3:0 4:14 5:0 6:16 
1 1:0.0019851117 2:0 3:0 4:14 5:0 6:64 
1 1:0.019851117 2:0 3:0 4:11 5:0 6:51 
1 1:0.011414392 2:0 3:0.11350087 4:13 5:0 6:22 
1 1:0.0019851117 2:0 3:0.079398845 4:4 5:0 6:26 
1 1:0.057568238 2:0 3:0.1062988 4:4 5:0 6:47 
1 1:0.057568238 2:0 3:0.12617222 4:3 5:0 6:21 
1 1:0.0019851117 2:0 3:0.068041382 4:2 5:0 6:4 
1 1:0.0084367246 2:0 3:0.15713484 4:2 5:0 6:15 
1 1:0.00049627792 2:0 3:0.070014004 4:0 5:0 6:10 
1 1:0.0044665012 2:0 3:0.12962963 4:3 5:0 6:9 
1 1:0.00049627792 2:0 3:0.10499013 4:3 5:0 6:14 
0.3025268328355979 1:0.057568238 2:0 3:0 4:8 5:0 6:226 
0.6356422739871553 1:0.057568238 2:0.16666667 3:0.12758946 4:5 5:0 6:39 
1 1:0.057568238 2:0 3:0 4:21 5:0 6:32 
0.7387560665458508 1:0.00049627792 2:0.43643578 3:0.047024485 4:6 5:0 6:56 
1 1:0.00049627792 2:0.37796447 3:0.17877424 4:6 5:0 6:9 
1 1:0.00049627792 2:0.3380617 3:0 4:17 5:0 6:33 
1 1:0.0039702233 2:0.18898224 3:0.089343504 4:5 5:0 6:8 
1 1:0.00049627792 2:0.50709255 3:0.19950799 4:1 5:0 6:3 
1 1:0.031265509 2:0.15430335 3:0.15781825 4:3 5:0 6:13 
0.526759482941522 1:0.031265509 2:0.46291005 3:0.18477395 4:3 5:0 6:7 
1 1:0.0044665012 2:0.14285714 3:0.037762746 4:3 5:0 6:15 
1 1:0.00099255583 2:0.16903085 3:0.14817356 4:3 5:0 6:2 
1 1:0.0019851117 2:0 3:0 4:19 5:0 6:33 
0.6153368679108558 1:0.00049627792 2:0 3:0 4:13 5:0 6:149 
0.3611796868849699 1:0.0094292804 2:0 3:0 4:11 5:0 6:603 
1 1:0.00099255583 2:0 3:0 4:9 5:0 6:4 
1 1:0.0029776675 2:0.125 3:0 4:16 5:0 6:6 
1 1:0.0039702233 2:0 3:0.054297531 4:3 5:0 6:35 
1 1:0.0029776675 2:0 3:0.094255773 4:1 5:0 6:6 
1 1:0.0029776675 2:0 3:0.094821878 4:1 5:0 6:23 
0.4289106430368524 1:0.00049627792 2:0 3:0.04388456 4:0 5:0 6:396 
0.01825422677723111 1:0.0029776675 2:0 3:0.071878198 4:3 5:0 6:142 
1 1:0.00049627792 2:0 3:0.069109474 4:3 5:0.28867513 6:6 
1 1:0.0029776675 2:0 3:0.059701493 4:3 5:0 6:32 
1 1:0.0024813896 2:0 3:0.093187196 4:2 5:0 6:2 
0.1757164603933592 1:0.02133995 2:0.23570226 3:0.097450891 4:16 5:0 6:224 
1 1:0.0019851117 2:0 3:0 4:9 5:0 6:12 
1 1:0.020843672 2:0.28867513 3:0.1413507 4:6 5:0.40824829 6:5 
1 1:0.00049627792 2:0 3:0 4:19 5:0 6:6 
1 1:0.0019851117 2:0 3:0.1447386 4:7 5:0.40824829 6:11 
1 1:0.073684211 2:0 3:0.17506693 4:1 5:0 6:6 
1 1:0.00049627792 2:0.2 3:0.12471165 4:20 5:0 6:3 
1 1:0.00049627792 2:0 3:0.19676045 4:2 5:0 6:7 
1 1:0.00049627792 2:0 3:0.10910895 4:1 5:0.57735027 6:2 
0.2225779975173761 1:0.02133995 2:0.16666667 3:0.16097071 4:16 5:0 6:224 
0.3910596551487611 1:0.017866005 2:0 3:0.08958177 4:14 5:0 6:273 
0.2690367412040289 1:0.00049627792 2:0 3:0.14382432 4:7 5:0 6:321 
0.4056398413599703 1:0.00049627792 2:0 3:0.21737044 4:6 5:0 6:460 
0.4292691727086763 1:0.00049627792 2:0.33333333 3:0 4:5 5:0 6:985 
1 1:0.0039702233 2:0 3:0.024112141 4:4 5:0 6:2 
1 1:0.0014888337 2:0 3:0.15899075 4:4 5:0.25 6:5 
0.3886731071168005 1:0.00049627792 2:0 3:0 4:1 5:0 6:431 
0.2915576844828006 1:0.00099255583 2:0 3:0.043620505 4:1 5:0 6:289 
1 1:0.00049627792 2:0.14433757 3:0.16471728 4:1 5:0 6:7 
1 1:0.00049627792 2:0.20412415 3:0.098954139 4:0 5:0 6:19 
1 1:0.0084367246 2:0 3:0 4:4 5:0.28867513 6:5 
1 1:0.00049627792 2:0 3:0.15785102 4:2 5:0.18898224 6:2 
1 1:0.00099255583 2:0.15430335 3:0.24454174 4:2 5:0 6:12 
1 1:0.00099255583 2:0 3:0.19359555 4:2 5:0 6:13 
0.6719059945558379 1:0.00049627792 2:0 3:0.035088319 4:2 5:0.37796447 6:30 
0.2857780508413786 1:0.00049627792 2:0 3:0.17661348 4:4 5:0 6:119 
0.2829219081233575 1:0.01215971 2:0 3:0 4:8 5:0 6:364 
0.3708388881911515 1:0.153902 2:0 3:0.084394947 4:6 5:0 6:98 
0.1813908093122897 1:0.153902 2:0 3:0.087705802 4:4 5:0 6:245 
1 1:0.0032667877 2:0 3:0 4:5 5:0 6:60 
1 1:0.00036297641 2:0.31622777 3:0.10318694 4:4 5:0 6:18 
1 1:0.022141561 2:0 3:0.046964664 4:24 5:0 6:10 
1 1:0.0032667877 2:0 3:0.035805744 4:4 5:0 6:17 
1 1:0.002722323 2:0 3:0.065985881 4:3 5:0 6:4 
1 1:0.01107078 2:0 3:0.064102564 4:3 5:0 6:3 
0.4536403474717074 1:0.0043557169 2:0 3:0 4:3 5:0 6:74 
1 1:0.153902 2:0 3:0.13355611 4:1 5:0 6:9 
1 1:0.0001814882 2:0 3:0.19847907 4:0 5:0.89442719 6:13 
1 1:0.050816697 2:0 3:0.064972212 4:6 5:0 6:18 
1 1:0.0012704174 2:0.15430335 3:0.15025063 4:2 5:0 6:10 
1 1:0.002722323 2:0.33333333 3:0.16941854 4:1 5:0.81649658 6:30 
1 1:0.0001814882 2:0.15811388 3:0.14497549 4:20 5:0 6:44 
0.5747063024900392 1:0.019782214 2:0 3:0.074627789 4:17 5:0 6:71 
0.7988939218453374 1:0.0001814882 2:0 3:0 4:17 5:0 6:94 
1 1:0.0021778584 2:0.14142136 3:0 4:14 5:0 6:58 
0.7734413299417794 1:0.0019963702 2:0.2236068 3:0 4:13 5:0 6:246 
0.9984925348844854 1:0.0019963702 2:0 3:0 4:13 5:0 6:129 
0.4341288103638083 1:0.00036297641 2:0.11952286 3:0 4:12 5:0 6:168 
1 1:0.0010889292 2:0 3:0 4:10 5:0 6:18 
0.7779544136716158 1:0.0001814882 2:0 3:0 4:10 5:0 6:77 
1 1:0.00072595281 2:0.1118034 3:0.15472462 4:8 5:0 6:137 
0.4290448745838087 1:0.0001814882 2:0.31622777 3:0 4:8 5:0 6:566 
0.2638159260284867 1:0.0001814882 2:0.15811388 3:0.13825222 4:7 5:0 6:257 
1 1:0.00054446461 2:0.1118034 3:0.114897 4:6 5:0 6:3 
1 1:0.0001814882 2:0.36514837 3:0.11046299 4:5 5:0 6:30 
1 1:0.00036297641 2:0.25819889 3:0.21843904 4:5 5:0 6:9 
1 1:0.0049001815 2:0.14142136 3:0 4:6 5:0 6:9 
1 1:0.0049001815 2:0.31622777 3:0.077075249 4:6 5:0 6:17 
1 1:0.0049001815 2:0.42426407 3:0.044499416 4:6 5:0 6:12 
1 1:0.015970962 2:0.11952286 3:0.08680274 4:4 5:0 6:9 
1 1:0.0032667877 2:0 3:0 4:5 5:0 6:26 
1 1:0.0032667877 2:0 3:0 4:5 5:0 6:24 
1 1:0.0001814882 2:0 3:0.18262175 4:4 5:0 6:1 
1 1:0.050816697 2:0.1118034 3:0.11736818 4:3 5:0 6:14 
1 1:0.01107078 2:0.11952286 3:0.13793271 4:3 5:0.28867513 6:17 
1 1:0.015789474 2:0.31622777 3:0.15686578 4:3 5:0 6:12 
1 1:0.0025408348 2:0.11952286 3:0.25748599 4:1 5:0.35355339 6:20 
1 1:0.0001814882 2:0.1 3:0.15252312 4:1 5:0 6:3 
0.8952956719666734 1:0.0010889292 2:0 3:0.14433757 4:21 5:0 6:24 
1 1:0.019782214 2:0 3:0.1128553 4:23 5:0 6:56 
1 1:0.00036297641 2:0 3:0 4:14 5:0 6:7 
0.129493179707147 1:0.153902 2:0 3:0.27883867 4:3 5:1 6:62 
1 1:0.01107078 2:0 3:0.069504805 4:3 5:0 6:7 
1 1:0.010344828 2:0 3:0.10349098 4:0 5:0.40824829 6:11 
1 1:0.0016333938 2:0.15430335 3:0 4:23 5:0 6:43 
0.4291995073227438 1:0.00054446461 2:0 3:0 4:17 5:0 6:418 
0.9605605931644909 1:0.022141561 2:0.15430335 3:0.11072731 4:17 5:0 6:78 
1 1:0.0021778584 2:0 3:0.08338653 4:14 5:0 6:27 
0.3110834086335996 1:0.00054446461 2:0 3:0 4:10 5:0 6:122 
0.429106642549876 1:0.0021778584 2:0.23570226 3:0 4:24 5:0 6:943 
1 1:0.050816697 2:0.15430335 3:0.13380773 4:6 5:0 6:8 
0.5984850694729215 1:0.153902 2:0 3:0.11166173 4:4 5:0 6:52 
0.4292533229736031 1:0.0047186933 2:0 3:0.045037735 4:27 5:0 6:336 
1 1:0.01107078 2:0 3:0.16609096 4:3 5:0 6:8 
1 1:0.00054446461 2:0 3:0.091160569 4:4 5:0 6:7 
1 1:0.0001814882 2:0 3:0 4:11 5:0 6:34 
1 1:0.00036297641 2:0 3:0.089773106 4:6 5:0 6:10 
1 1:0.0045372051 2:0.11785113 3:0.056911039 4:18 5:0 6:51 
0.4200892316108455 1:0.0047186933 2:0 3:0.047269012 4:23 5:0 6:120 
1 1:0.153902 2:0 3:0.068551062 4:3 5:0 6:29 
1 1:0.00054446461 2:0 3:0.11047364 4:3 5:0 6:22 
1 1:0.0029038113 2:0 3:0.1042852 4:3 5:0 6:9 
1 1:0.0010889292 2:0 3:0.092717265 4:4 5:0 6:25 
1 1:0.033393829 2:0.12598816 3:0.085366559 4:3 5:0 6:20 
0.1401295824929525 1:0.0016333938 2:0 3:0 4:15 5:0 6:87 
1 1:0.00090744102 2:0.15811388 3:0 4:10 5:0 6:34 
0.4123880816212208 1:0.153902 2:0.15811388 3:0.14564382 4:7 5:0 6:78 
1 1:0.0001814882 2:0 3:0.10519303 4:6 5:0 6:2 
1 1:0.00054446461 2:0.14433757 3:0.16617575 4:6 5:0 6:4 
1 1:0.0001814882 2:0 3:0.12297746 4:7 5:0 6:8 
0.371302744840095 1:0.0012704174 2:0.31622777 3:0 4:3 5:0 6:215 
1 1:0.0001814882 2:0 3:0.14322297 4:3 5:0 6:6 
1 1:0.00090744102 2:0.13363062 3:0.19781414 4:2 5:0 6:18 
1 1:0.0039927405 2:0.20412415 3:0.15 4:2 5:0 6:34 
0.6665556051330843 1:0.153902 2:0 3:0.087774726 4:1 5:0 6:77 
1 1:0.01215971 2:0 3:0.04050542 4:5 5:0 6:12 
1 1:0.00036297641 2:0.47434165 3:0.13530202 4:3 5:0 6:11 
1 1:0.0001814882 2:0.42426407 3:0.16673078 4:1 5:0 6:6 
1 1:0.0049001815 2:0 3:0.05 4:8 5:0 6:54 
1 1:0.00042735043 2:0.10660036 3:0.17349448 4:22 5:0 6:11 
0.429182095850709 1:0.074786325 2:0 3:0 4:20 5:0 6:309 
1 1:0.00042735043 2:0.10660036 3:0 4:13 5:0 6:13 
1 1:0.018803419 2:0.21320072 3:0 4:8 5:0 6:18 
1 1:0.00085470085 2:0.21320072 3:0.12768848 4:8 5:0 6:24 
1 1:0.0012820513 2:0 3:0.11245586 4:9 5:0 6:21 
1 1:0.00042735043 2:0 3:0.12737045 4:5 5:0 6:8 
1 1:0.017948718 2:0.21320072 3:0.1246112 4:8 5:0 6:9 
0.4280237825049078 1:0.00042735043 2:0 3:0.035189557 4:1 5:0 6:351 
1 1:0.074786325 2:0 3:0 4:18 5:0 6:4 
0.2677347341763877 1:0.074786325 2:0 3:0 4:16 5:0 6:132 
1 1:0.041452991 2:0.15430335 3:0.20965697 4:11 5:0 6:25 
0.385008558796675 1:0.0025641026 2:0 3:0.066666667 4:8 5:0 6:574 
1 1:0.088888889 2:0.12598816 3:0.15473569 4:6 5:0 6:8 
1 1:0.018803419 2:0.12598816 3:0.30816678 4:5 5:0 6:7 
1 1:0.060683761 2:0.11952286 3:0.30795659 4:1 5:0 6:2 
1 1:0.00085470085 2:0 3:0.099644759 4:8 5:0 6:24 
1 1:0.0042735043 2:0.11396058 3:0.15615266 4:7 5:0 6:6 
1 1:0.0017094017 2:0 3:0.12179969 4:8 5:0 6:21 
1 1:0.033760684 2:0.14285714 3:0.1294831 4:11 5:0 6:7 
1 1:0.026068376 2:0.10910895 3:0.22847742 4:9 5:0.28867513 6:7 
1 1:0.026068376 2:0.14285714 3:0.10559274 4:8 5:0 6:50 
1 1:0.017948718 2:0 3:0.13522468 4:8 5:0.35355339 6:29 
1 1:0.074786325 2:0 3:0.15208304 4:4 5:0 6:26 
1 1:0.011538462 2:0.34188173 3:0.20405183 4:5 5:0 6:5 
1 1:0.074786325 2:0.11396058 3:0.19716159 4:4 5:0 6:8 
1 1:0.018803419 2:0 3:0.16043698 4:3 5:0 6:3 
0.5353249651122243 1:0.00042735043 2:0 3:0 4:3 5:0 6:154 
1 1:0.014102564 2:0 3:0.12322413 4:1 5:0.35355339 6:12 
1 1:0.033760684 2:0 3:0.095380136 4:2 5:0 6:8 
1 1:0.0021367521 2:0.16903085 3:0.18320923 4:4 5:0 6:8 
1 1:0.060683761 2:0.13363062 3:0.16309808 4:16 5:0 6:18 
1 1:0.060683761 2:0.16903085 3:0.20287056 4:10 5:0 6:21 
1 1:0.0038461538 2:0 3:0 4:20 5:0 6:2 
1 1:0.027350427 2:0.23570226 3:0 4:17 5:0.81649658 6:7 
1 1:0.0012820513 2:0.15430335 3:0.23692416 4:15 5:0 6:2 
1 1:0.022222222 2:0 3:0 4:14 5:0 6:4 
1 1:0.0012820513 2:0.61237244 3:0.32025631 4:13 5:0.81649658 6:3 
1 1:0.027350427 2:0.40824829 3:0.11826248 4:13 5:0.66666667 6:2 
1 1:0.0012820513 2:0 3:0.032025631 4:10 5:0 6:25 
1 1:0.0012820513 2:0 3:0.021398025 4:10 5:0 6:6 
1 1:0.002991453 2:0 3:0 4:9 5:0 6:18 
0.4127437150579144 1:0.00042735043 2:0.47140452 3:0 4:22 5:0.57735027 6:132 
1 1:0.022222222 2:0 3:0 4:16 5:0 6:9 
1 1:0.00042735043 2:0 3:0 4:15 5:0 6:5 
1 1:0.015384615 2:0.25819889 3:0 4:15 5:0 6:8 
1 1:0.013675214 2:0 3:0 4:13 5:0 6:15 
1 1:0.0055555556 2:0.25819889 3:0 4:12 5:0 6:10 
1 1:0.022222222 2:0.36514837 3:0 4:9 5:0 6:3 
1 1:0.022222222 2:0.2236068 3:0 4:8 5:0 6:6 
0.4292514474982914 1:0.014529915 2:0 3:0 4:30 5:0 6:7753 
0.1893559228145632 1:0.011538462 2:0.36514837 3:0.20628425 4:1 5:0.4472136 6:1 
1 1:0.0055555556 2:0.25819889 3:0.12574199 4:5 5:0 6:5 
1 1:0.088888889 2:0 3:0.16283093 4:1 5:0 6:4 
1 1:0.00085470085 2:0 3:0 4:25 5:0 6:28 
1 1:0.022222222 2:0.18257419 3:0 4:23 5:0 6:6 
1 1:0.088888889 2:0.40824829 3:0 4:20 5:0 6:11 
1 1:0.00085470085 2:0 3:0 4:20 5:0 6:11 
1 1:0.033760684 2:0.20412415 3:0 4:18 5:0 6:17 
1 1:0.088888889 2:0.16666667 3:0 4:16 5:0 6:4 
1 1:0.088888889 2:0.3086067 3:0 4:13 5:0 6:11 
1 1:0.088888889 2:0 3:0 4:13 5:0 6:3 
1 1:0.088888889 2:0.20412415 3:0.089642146 4:7 5:0 6:20 
1 1:0.17982533 2:0 3:0 4:2 5:0 6:21 
1 1:0.002227302 2:0 3:0 4:3 5:0 6:3 
0.4294219337912649 1:0.02227302 2:0.25819889 3:0.023816275 4:19 5:0 6:566 
0.3507762537674181 1:0.02227302 2:0.18257419 3:0 4:14 5:0 6:321 
1 1:0.00064474533 2:0 3:0 4:6 5:0 6:33 
1 1:0.0023445285 2:0 3:0.034314859 4:5 5:0 6:31 
1 1:0.00087919817 2:0 3:0 4:8 5:0 6:5 
1 1:0.00803001 2:0 3:0.1905302 4:1 5:0 6:9 
1 1:0.031651134 2:0 3:0.18412782 4:2 5:0 6:17 
1 1:0.011195123 2:0 3:0 4:8 5:0 6:9 
0.8139656843070897 1:0.00035167927 2:0.2 3:0 4:8 5:0 6:52 
0.2839336965451801 1:0.017818416 2:0 3:0 4:6 5:0 6:364 
0.2226622948109337 1:0.17982533 2:0 3:0.068945025 4:4 5:0.35355339 6:165 
0.05035077603191779 1:0.17982533 2:0 3:0.041748286 4:4 5:0 6:98 
1 1:0.087216459 2:0 3:0.053786248 4:1 5:0 6:72 
0.4003440129253517 1:0.00035167927 2:0 3:0 4:0 5:0 6:76 
1 1:0.0021686888 2:0 3:0.11908263 4:2 5:0 6:28 
1 1:5.8613211e-05 2:0.21081851 3:0.18270035 4:2 5:0 6:9 
0.5813144507656941 1:0.00023445285 2:0 3:0.1492907 4:7 5:0 6:82 
1 1:0.00803001 2:0 3:0.23995201 4:0 5:0.70710678 6:2 
1 1:0.00082058496 2:0.28867513 3:0.040672592 4:3 5:0 6:21 
0.9640124351317908 1:0.00082058496 2:0.20412415 3:0.11737661 4:3 5:0 6:59 
1 1:0.00017583963 2:0.18898224 3:0.12009612 4:1 5:0.70710678 6:29 
1 1:0.00017583963 2:0 3:0.15794944 4:1 5:0.57735027 6:31 
0.4284116879831031 1:0.0018756228 2:0 3:0.039840954 4:12 5:0 6:1050 
1 1:0.0020514624 2:0 3:0.069700375 4:12 5:0 6:18 
1 1:0.00017583963 2:0 3:0 4:9 5:0 6:70 
1 1:0.00803001 2:0 3:0.13699408 4:1 5:0 6:14 
1 1:5.8613211e-05 2:0.15430335 3:0.24544035 4:1 5:0.89442719 6:22 
1 1:0.018521775 2:0 3:0.15519548 4:11 5:0 6:127 
0.2199292296247946 1:0.17982533 2:0 3:0.040499884 4:6 5:0.5 6:73 
1 1:0.018521775 2:0 3:0.055795248 4:1 5:0.70710678 6:16 
1 1:0.0084878679 2:0 3:0 4:5 5:0 6:13 
1 1:0.033859212 2:0 3:0.066473069 4:4 5:0 6:5 
1 1:0.020204816 2:0.32732684 3:0.11988305 4:4 5:0 6:12 
1 1:0.033859212 2:0 3:0.18948418 4:4 5:0.57735027 6:4 
0.1540720589526996 1:0.034966325 2:0.18257419 3:0.059549133 4:7 5:0 6:1071 
1 1:0.020204816 2:0.18257419 3:0.083114293 4:2 5:0 6:18 
1 1:0.031737245 2:0.18257419 3:0 4:12 5:0 6:17 
1 1:0.0084878679 2:0.2236068 3:0 4:5 5:0 6:12 
1 1:0.033859212 2:0 3:0.10416667 4:4 5:0.66666667 6:4 
1 1:0.020204816 2:0 3:0.032897585 4:2 5:0 6:18 
1 1:0.01466925 2:0 3:0.14085904 4:2 5:0.66666667 6:9 
1 1:0.019189962 2:0.096225045 3:0.16553055 4:1 5:0 6:14 
1 1:0.019189962 2:0.12909944 3:0.25819889 4:1 5:0.66666667 6:20 
1 1:0.22797306 2:0.15811388 3:0 4:10 5:0 6:8 
1 1:0.22797306 2:0.21821789 3:0 4:12 5:0 6:18 
1 1:0.22797306 2:0.14285714 3:0 4:10 5:0 6:12 
1 1:0.22797306 2:0.15430335 3:0.16794382 4:9 5:0 6:21 
1 1:0.22797306 2:0.40089186 3:0.18725634 4:8 5:0 6:11 
1 1:0.033859212 2:0.13363062 3:0.085854571 4:4 5:0.35355339 6:9 
1 1:9.2259434e-05 2:0.16903085 3:0 4:9 5:0 6:4 
0.08367371880874344 1:0.0030445613 2:0 3:0 4:1 5:0 6:85 
0.392237647837566 1:0.019189962 2:0.11952286 3:0.38460353 4:1 5:0.5 6:10 
1 1:0.019189962 2:0.23904572 3:0.13534217 4:1 5:0 6:18 
1 1:0.019189962 2:0.22792115 3:0.14927036 4:1 5:0 6:8 
1 1:0.019189962 2:0.17817416 3:0.11549858 4:1 5:0 6:14 
1 1:0.019189962 2:0.35856858 3:0.09174698 4:1 5:0 6:20 
1 1:0.019189962 2:0.12598816 3:0.050251891 4:1 5:0 6:15 
1 1:0.033859212 2:0.23570226 3:0 4:6 5:0 6:8 
0.2081272351825411 1:0.034966325 2:0 3:0.086548464 4:7 5:0 6:1071 
1 1:0.033859212 2:0.16666667 3:0.15461658 4:3 5:0 6:4 
1 1:0.0030445613 2:0 3:0.069705031 4:2 5:0 6:54 
0.5709981333900735 1:0.052218839 2:0 3:0.10006256 4:16 5:0 6:123 
1 1:0.22797306 2:0.3086067 3:0.086656718 4:15 5:0 6:11 
0.4288762914981591 1:0.00036903773 2:0 3:0 4:12 5:0 6:1430 
1 1:0.22797306 2:0.28571429 3:0.13860898 4:16 5:0 6:27 
1 1:0.033859212 2:0.13363062 3:0.14363791 4:3 5:0 6:26 
1 1:0.00097751711 2:0 3:0.043643578 4:8 5:0 6:16 
1 1:0.00097751711 2:0 3:0.17218921 4:2 5:0.40824829 6:1 
1 1:0.077223851 2:0 3:0.075592895 4:2 5:0 6:4 
1 1:0.077223851 2:0.33333333 3:0.06799001 4:1 5:0 6:2 
1 1:0.061583578 2:0 3:0.16216874 4:7 5:0 6:70 
1 1:0.077223851 2:0.21081851 3:0.14754222 4:4 5:0 6:15 
1 1:0.020527859 2:0.42426407 3:0.11081833 4:3 5:0 6:4 
1 1:0.00097751711 2:0.2236068 3:0.12390243 4:3 5:0 6:10 
0.5852303486530434 1:0.0039100684 2:0.2236068 3:0.13324084 4:2 5:0 6:34 
1 1:0.00097751711 2:0.23904572 3:0.12909944 4:2 5:0.5 6:1 
1 1:0.24340176 2:0.2 3:0.072074997 4:1 5:0 6:19 
1 1:0.014662757 2:0 3:0 4:19 5:0 6:142 
0.7299190225287301 1:0.0058651026 2:0.24618298 3:0.080032673 4:5 5:0 6:31 
1 1:0.00097751711 2:0.15430335 3:0.16165808 4:3 5:0 6:2 
1 1:0.0039100684 2:0.14433757 3:0.089442719 4:3 5:0 6:14 
0.6427843637294512 1:0.0068426197 2:0 3:0.14855627 4:7 5:0 6:57 
0.345629323182062 1:0.0019550342 2:0.40824829 3:0.085409794 4:15 5:0 6:186 
1 1:0.061583578 2:0 3:0.027842302 4:8 5:0 6:13 
1 1:0.061583578 2:0 3:0.04794633 4:4 5:0 6:23 
1 1:0.014662757 2:0 3:0.10611909 4:3 5:0.31622777 6:2 
1 1:0.061583578 2:0.15430335 3:0 4:2 5:0 6:8 
1 1:0.0039100684 2:0 3:0.089947845 4:2 5:0 6:34 
1 1:0.24340176 2:0 3:0.077849894 4:1 5:0 6:19 
1 1:0.0039100684 2:0 3:0.098309177 4:1 5:0 6:5 
1 1:0.00097751711 2:0 3:0.080647784 4:1 5:0 6:2 
1 1:0.24340176 2:0.13608276 3:0.1952172 4:1 5:0 6:18 
1 1:0.049853372 2:0.13608276 3:0.19970314 4:1 5:0 6:16 
1 1:0.0039100684 2:0 3:0.18154831 4:2 5:0 6:5 
1 1:0.0068426197 2:0 3:0.13985883 4:0 5:0 6:6 
1 1:0.0030172414 2:0 3:0 4:7 5:0 6:46 
0.08931734537518231 1:0.0028017241 2:0.66666667 3:0.23433321 4:3 5:0 6:80 
0.1390041897742499 1:0.0030172414 2:0 3:0 4:3 5:0.5 6:289 
0.02685350986686386 1:0.036206897 2:0.25819889 3:0.14398647 4:2 5:0 6:30 
0.3855131355688558 1:0.038362069 2:0.28867513 3:0.18802536 4:2 5:0 6:42 
0.9351543190408658 1:0.00086206897 2:0 3:0.099602384 4:2 5:0 6:39 
1 1:0.00086206897 2:0 3:0 4:2 5:0 6:51 
1 1:0.0015086207 2:0.20412415 3:0 4:2 5:0 6:43 
0.8577129245225372 1:0.083081897 2:0 3:0.082011305 4:1 5:0.63245553 6:37 
1 1:0.0081896552 2:0 3:0.12729377 4:1 5:0 6:25 
0.4015308122018629 1:0.00010775862 2:0.28867513 3:0.056980288 4:23 5:0 6:1917 
0.009396114963706289 1:0.036206897 2:0.18257419 3:0.17638342 4:15 5:0 6:94 
1 1:0.0054956897 2:0.23570226 3:0 4:2 5:0 6:27 
1 1:0.0054956897 2:0 3:0 4:1 5:0 6:36 
1 1:0.009375 2:0.21821789 3:0 4:3 5:0 6:13 
1 1:0.00010775862 2:0 3:0.15194744 4:1 5:0 6:16 
0.2991542765885354 1:0.0068965517 2:0 3:0.061249495 4:11 5:0 6:1918 
0.2519520517705983 1:0.00010775862 2:0 3:0 4:6 5:0 6:417 
0.2126341002609291 1:0.083081897 2:0 3:0.12987676 4:5 5:0 6:179 
1 1:0.0016163793 2:0.14433757 3:0 4:5 5:0 6:6 
0.003383031663251395 1:0.083081897 2:0.31622777 3:0.16732903 4:2 5:0 6:229 
1 1:0.0018318966 2:0 3:0 4:2 5:0 6:14 
1 1:0.0005387931 2:0.1118034 3:0 4:1 5:0 6:7 
0.2959142523815334 1:0.036206897 2:0 3:0 4:1 5:0 6:117 
1 1:0.036206897 2:0 3:0 4:1 5:0 6:53 
1 1:0.021336207 2:0 3:0 4:0 5:0 6:32 
1 1:0.0014008621 2:0 3:0 4:4 5:0 6:24 
1 1:0.00043103448 2:0 3:0 4:3 5:0.70710678 6:9 
0.8507472729610501 1:0.0091594828 2:0.15430335 3:0.22512721 4:8 5:0 6:79 
0.6571739489046357 1:0.00010775862 2:0.16666667 3:0 4:7 5:0 6:54 
0.3092765228921968 1:0.083081897 2:0 3:0.13282661 4:7 5:0 6:166 
0.7731212148107813 1:0.00086206897 2:0 3:0 4:5 5:0 6:80 
0.4249695730415858 1:0.083081897 2:0 3:0.096524657 4:3 5:0 6:300 
1 1:0.0091594828 2:0 3:0.17061128 4:3 5:0 6:7 
0.4957997295802586 1:0.0019396552 2:0 3:0.16012815 4:3 5:0 6:52 
1 1:0.00096982759 2:0 3:0 4:2 5:0.33333333 6:5 
0.1878207010923519 1:0.0052801724 2:0.23570226 3:0.095354928 4:1 5:0 6:177 
0.7758123629360785 1:0.023168103 2:0 3:0.098833242 4:25 5:0 6:73 
1 1:0.00010775862 2:0 3:0 4:4 5:0.57735027 6:5 
1 1:0.00010775862 2:0 3:0.16205748 4:9 5:0 6:7 
1 1:0.00010775862 2:0.23570226 3:0 4:12 5:0 6:47 
1 1:0.00010775862 2:0.20412415 3:0 4:10 5:0 6:11 
1 1:0.0005387931 2:0 3:0 4:10 5:0 6:21 
0.7577437995715347 1:0.036206897 2:0 3:0 4:8 5:0 6:133 
1 1:0.0076508621 2:0 3:0.10444659 4:7 5:0.5 6:40 
0.9170086542259571 1:0.011422414 2:0.3086067 3:0 4:6 5:0 6:72 
1 1:0.00086206897 2:0 3:0.074226962 4:5 5:0 6:29 
0.109750048347819 1:0.00075431034 2:0.14285714 3:0 4:5 5:0 6:202 
1 1:0.036206897 2:0 3:0.16859351 4:3 5:0 6:9 
0.4725745890879995 1:0.083081897 2:0.75592895 3:0.21761591 4:3 5:0 6:55 
1 1:0.083081897 2:0.16903085 3:0 4:2 5:0 6:28 
1 1:0.00096982759 2:0 3:0 4:2 5:0 6:13 
1 1:0.072844828 2:0.18898224 3:0.25391836 4:0 5:0.81649658 6:38 
1 1:0.0054956897 2:0 3:0 4:1 5:0 6:23 
1 1:0.011422414 2:0 3:0 4:9 5:0 6:26 
1 1:0.0016163793 2:0.2236068 3:0 4:8 5:0 6:10 
1 1:0.083081897 2:0 3:0.086261204 4:5 5:0 6:93 
1 1:0.083081897 2:0 3:0.137993 4:5 5:0 6:17 
1 1:0.0005387931 2:0 3:0.090837769 4:3 5:0 6:91 
1 1:0.083081897 2:0.2236068 3:0 4:2 5:0 6:28 
1 1:0.00086206897 2:0 3:0.062197041 4:2 5:0 6:35 
0.04335990892691671 1:0.0091594828 2:0.20412415 3:0.16107414 4:2 5:0 6:47 
0.08249790099414568 1:0.00096982759 2:0 3:0 4:2 5:0 6:37 
0.2122851180422241 1:0.0052801724 2:0 3:0.13897814 4:1 5:0 6:177 
1 1:0.0052801724 2:0 3:0.078573433 4:1 5:0 6:16 
1 1:0.072844828 2:0 3:0.073075361 4:0 5:0 6:33 
1 1:0.072844828 2:0.18898224 3:0.25391836 4:0 5:0.81649658 6:17 
0.01763824782348752 1:0.0010775862 2:0 3:0.072750845 4:2 5:0 6:102 
1 1:0.002262931 2:0 3:0 4:2 5:0 6:11 
0.01997724115977551 1:0.00021551724 2:0 3:0.051370786 4:16 5:0 6:152 
1 1:0.011422414 2:0 3:0 4:9 5:0 6:26 
1 1:0.083081897 2:0 3:0.07954393 4:9 5:0 6:26 
1 1:0.083081897 2:0 3:0.08652532 4:8 5:0 6:36 
1 1:0.0016163793 2:0 3:0 4:8 5:0 6:10 
0.19334330124757 1:0.011422414 2:0 3:0 4:5 5:0 6:56 
1 1:0.023168103 2:0 3:0.054661337 4:20 5:0 6:54 
1 1:0.00032327586 2:0 3:0.10446143 4:0 5:0 6:2 
1 1:0.0028017241 2:0 3:0.038892223 4:18 5:0 6:20 
1 1:0.00021551724 2:0 3:0.12791562 4:3 5:0 6:4 
0.2461684440494259 1:0.00021551724 2:0 3:0 4:12 5:0 6:93 
0.6645907265778022 1:0.0028017241 2:0 3:0 4:11 5:0 6:132 
1 1:0.036206897 2:0.15430335 3:0.17393131 4:8 5:0 6:27 
0.1583664703811812 1:0.00021551724 2:0 3:0 4:9 5:0 6:174 
1 1:0.00010775862 2:0 3:0 4:7 5:0 6:3 
1 1:0.0005387931 2:0 3:0 4:6 5:0 6:65 
1 1:0.0005387931 2:0 3:0 4:6 5:0 6:31 
0.975841877214459 1:0.00064655172 2:0 3:0 4:5 5:0 6:252 
1 1:0.0028017241 2:0 3:0.076311702 4:5 5:0 6:39 
1 1:0.0028017241 2:0 3:0.044582257 4:5 5:0 6:24 
1 1:0.00032327586 2:0 3:0 4:5 5:0 6:35 
0.2992484331791575 1:0.0005387931 2:0.3380617 3:0 4:4 5:0 6:515 
0.1336501845835556 1:0.083081897 2:0 3:0.10703672 4:4 5:0 6:136 
0.2152160052078648 1:0.036206897 2:0.37796447 3:0.06172134 4:4 5:0 6:112 
1 1:0.036206897 2:0 3:0.056218825 4:3 5:0 6:46 
1 1:0.083081897 2:0 3:0 4:3 5:0 6:98 
1 1:0.0019396552 2:0 3:0.14248071 4:3 5:0 6:32 
1 1:0.00086206897 2:0 3:0 4:3 5:0 6:23 
1 1:0.00010775862 2:0 3:0 4:2 5:0 6:25 
1 1:0.0015086207 2:0 3:0 4:2 5:0 6:59 
0.5180844065500164 1:0.0015086207 2:0 3:0 4:2 5:0 6:36 
1 1:0.0081896552 2:0 3:0.045910003 4:1 5:0 6:9 
1 1:0.0081896552 2:0 3:0.092213889 4:1 5:0 6:24 
0.6100847061416603 1:0.036206897 2:0 3:0 4:1 5:0 6:107 
1 1:0.00043103448 2:0 3:0 4:1 5:0 6:1 
1 1:0.0005387931 2:0 3:0 4:1 5:0 6:5 
1 1:0.00021551724 2:0.14285714 3:0 4:3 5:0 6:21 
1 1:0.00032327586 2:0 3:0 4:2 5:0 6:45 
1 1:0.00043103448 2:0 3:0 4:1 5:0 6:6 
1 1:0.0054956897 2:0 3:0 4:2 5:0 6:4 
1 1:0.00064655172 2:0 3:0 4:1 5:0 6:10 
1 1:0.00064655172 2:0.37796447 3:0 4:1 5:0 6:9 
1 1:0.00064655172 2:0 3:0 4:1 5:0 6:51 
1 1:0.00010775862 2:0 3:0 4:8 5:0 6:14 
1 1:0.00043103448 2:0 3:0 4:3 5:0 6:9 
0.4263136005016729 1:0.00043103448 2:0 3:0.12949975 4:19 5:0 6:170 
1 1:0.0030172414 2:0 3:0 4:18 5:0 6:15 
1 1:0.00021551724 2:0 3:0 4:5 5:0 6:27 
1 1:0.0018318966 2:0 3:0.089457033 4:4 5:0 6:7 
1 1:0.0018318966 2:0 3:0.29070095 4:0 5:0.81649658 6:5 
1 1:0.00021551724 2:0 3:0 4:3 5:0 6:24 
1 1:0.00032327586 2:0.28867513 3:0 4:3 5:0 6:18 
1 1:0.0054956897 2:0 3:0 4:2 5:0.33333333 6:28 
1 1:0.0054956897 2:0 3:0 4:1 5:0 6:11 
1 1:0.00010775862 2:0 3:0 4:11 5:0 6:29 
0.4290656978487428 1:0.00010775862 2:0 3:0 4:9 5:0 6:778 
0.1612935803705616 1:0.083081897 2:0.25819889 3:0.18018749 4:4 5:0 6:91 
1 1:0.0030172414 2:0 3:0 4:4 5:0 6:27 
0.0192195245045193 1:0.0030172414 2:0 3:0 4:4 5:0 6:77 
0.2529331535612102 1:0.0016163793 2:0.16903085 3:0.20608504 4:3 5:0 6:195 
0.4016326050605761 1:0.0016163793 2:0.2 3:0.25285582 4:3 5:0.81649658 6:16 
0.7820240693387682 1:0.0016163793 2:0 3:0.18054046 4:3 5:0 6:30 
1 1:0.00032327586 2:0 3:0.13338077 4:3 5:0 6:20 
1 1:0.083081897 2:0 3:0.17305064 4:2 5:0 6:10 
1 1:0.002262931 2:0 3:0 4:1 5:0 6:4 
1 1:0.00021551724 2:0 3:0 4:3 5:0 6:3 
0.3326179895708072 1:0.00021551724 2:0 3:0.12165177 4:16 5:0 6:152 
0.8628730551399894 1:0.0091594828 2:0 3:0.029787773 4:11 5:0 6:106 
1 1:0.0091594828 2:0 3:0.097645821 4:8 5:0 6:79 
0.2221183675810122 1:0.0030172414 2:0 3:0 4:4 5:0 6:204 
1 1:0.083081897 2:0.20412415 3:0.11456663 4:3 5:0 6:15 
1 1:0.083081897 2:0 3:0 4:2 5:0 6:28 
1 1:0.00010775862 2:0 3:0 4:2 5:0 6:25 
0.2082966836346377 1:0.0091594828 2:0.20412415 3:0.10556867 4:2 5:0.57735027 6:47 
1 1:0.00021551724 2:0 3:0 4:1 5:0 6:4 
1 1:0.00043103448 2:0 3:0 4:1 5:0 6:13 
0.615143981648071 1:0.00021551724 2:0.25 3:0.09124486 4:16 5:0 6:219 
1 1:0.00010775862 2:0 3:0.067065275 4:2 5:0 6:30 
0.4292155091460699 1:0.002923027 2:0 3:0 4:4 5:0 6:7753 
0.2996960791028263 1:0.0051964924 2:0 3:0.051708769 4:9 5:0 6:1917 
1 1:0.54693082 2:0.20412415 3:0.1853695 4:2 5:0 6:5 
1 1:0.54693082 2:0.20412415 3:0.07409949 4:3 5:0 6:16 
1 1:0.54693082 2:0 3:0.067286311 4:7 5:0 6:6 
1 1:0.54693082 2:0 3:0 4:8 5:0 6:4 
1 1:0.013316012 2:0.21821789 3:0 4:1 5:0 6:54 
1 1:0.54693082 2:0.33333333 3:0.1860521 4:7 5:0 6:103 
0.2648156153268607 1:0.1013316 2:0.40824829 3:0.12555049 4:12 5:0 6:174 
0.5051687262044067 1:0.54693082 2:0.33333333 3:0.1254363 4:1 5:0 6:65 
1 1:0.00064956155 2:0 3:0.11487766 4:3 5:0 6:6 
1 1:0.54693082 2:0.13608276 3:0.18002057 4:1 5:0 6:2 
1 1:0.54693082 2:0 3:0.077151675 4:1 5:0 6:4 
1 1:0.54693082 2:0.13608276 3:0.1134023 4:1 5:0 6:20 
1 1:0.54693082 2:0.16666667 3:0.19444444 4:4 5:0 6:7 
1 1:0.1013316 2:0 3:0.11013346 4:10 5:0 6:34 
1 1:0.54693082 2:0.66666667 3:0.22524154 4:7 5:0 6:103 
0.1112691470879391 1:0.1013316 2:0.20412415 3:0.14923249 4:12 5:0 6:174 
0.3687130587951875 1:0.54693082 2:0 3:0.073370909 4:6 5:0 6:37 
0.2844122624329928 1:0.0090938616 2:0.23570226 3:0.15272071 4:7 5:0 6:333 
0.4078235127179369 1:0.013316012 2:0 3:0 4:4 5:0 6:438 
1 1:0.053913608 2:0.15430335 3:0.11952286 4:0 5:0 6:27 
0.9912157474504429 1:0.053913608 2:0.18257419 3:0 4:1 5:0 6:56 
0.4292612334444781 1:0.053913608 2:0.46291005 3:0.11886433 4:13 5:0 6:1467 
0.428983127046899 1:0.0016239039 2:0 3:0 4:0 5:0 6:493 
1 1:0.00032478077 2:0.16666667 3:0 4:3 5:0 6:6 
0.3408188370732076 1:0.022085093 2:0 3:0 4:4 5:0 6:538 
1 1:0.0035725885 2:0.13608276 3:0.11631053 4:3 5:0 6:18 
1 1:0.00064956155 2:0 3:0 4:1 5:0 6:15 
1 1:0.00064956155 2:0 3:0 4:1 5:0 6:5 
1 1:0.54693082 2:0.36514837 3:0.11338934 4:2 5:0 6:1 
1 1:0.54693082 2:0.18257419 3:0.22792115 4:2 5:0 6:3 
1 1:0.54693082 2:0.54772256 3:0.25937569 4:5 5:0 6:4 
1 1:0.54693082 2:0.18257419 3:0.087481777 4:1 5:0 6:4 
1 1:0.54693082 2:0.33333333 3:0.18002057 4:1 5:0 6:20 
1 1:0.54693082 2:0.16666667 3:0.078621363 4:1 5:0 6:10 
1 1:0.0012991231 2:0.33333333 3:0.052414242 4:17 5:0 6:1 
1 1:0.00032478077 2:0.16666667 3:0.13801311 4:1 5:0 6:11 
1 1:0.012121212 2:0.16903085 3:0 4:1 5:0 6:4 
0.429021325494332 1:0.0090909091 2:0 3:0 4:3 5:0 6:1903 
0.3145241321877261 1:0.10909091 2:0 3:0.16070148 4:10 5:0 6:968 
0.4900319845768327 1:0.027272727 2:0 3:0 4:1 5:0 6:47 
0.2759675187864336 1:0.10909091 2:0 3:0.019389168 4:3 5:0 6:293 
1 1:0.0015906681 2:0.16666667 3:0.12500807 4:7 5:0 6:14 
1 1:0.0015906681 2:0 3:0.10135518 4:5 5:0.12909944 6:21 
0.04233562427798988 1:0.0015906681 2:0 3:0.22969575 4:3 5:0 6:67 
1 1:0.014846235 2:0 3:0.071668937 4:5 5:0 6:3 
0.4285783410744806 1:0.010074231 2:0 3:0.15910118 4:12 5:0 6:982 
1 1:0.00053022269 2:0.16666667 3:0.16961974 4:7 5:0 6:15 
0.4077633503751338 1:0.0026511135 2:0 3:0.14687761 4:2 5:0 6:657 
1 1:0.010074231 2:0 3:0.20947783 4:2 5:0 6:21 
0.3206052663620894 1:0.010074231 2:0 3:0.22868814 4:5 5:0 6:285 
1 1:0.010074231 2:0 3:0.24003527 4:1 5:0.31622777 6:40 
0.7020134543896597 1:0.00053022269 2:0 3:0.1548226 4:3 5:0 6:126 
1 1:0.0010604454 2:0 3:0.16589137 4:2 5:0 6:20 
1 1:0.0016528926 2:0.2236068 3:0 4:3 5:0 6:6 
1 1:0.0016528926 2:0 3:0 4:1 5:0 6:9 
1 1:0.0016528926 2:0 3:0.064519859 4:1 5:0 6:1 
1 1:0.0027231467 2:0.70710678 3:0 4:15 5:0 6:6 
1 1:0.029046899 2:0.5 3:0 4:9 5:0 6:42 
1 1:0.031467474 2:0.57735027 3:0 4:5 5:0 6:7 
0.3586603237965827 1:0.0045385779 2:0.35355339 3:0 4:21 5:0 6:175 
1 1:0.0012102874 2:0 3:0.18355577 4:5 5:0.33333333 6:9 
1 1:0.00060514372 2:0 3:0.03331483 4:4 5:0 6:14 
1 1:0.00030257186 2:0 3:0.029285371 4:6 5:0 6:10 
1 1:0.0033282905 2:0 3:0.039652579 4:2 5:0 6:9 
1 1:0.0033282905 2:0 3:0.10887115 4:2 5:0.33333333 6:9 
1 1:0.0033282905 2:0 3:0.1348854 4:2 5:0.33333333 6:6 
1 1:0.13030303 2:0.13608276 3:0.17355072 4:0 5:0 6:2 
1 1:0.016722408 2:0 3:0.095298622 4:7 5:0 6:17 
0.1037027993250219 1:0.06187291 2:0 3:0.064194074 4:5 5:0 6:135 
1 1:0.016722408 2:0.3086067 3:0.17829649 4:4 5:0 6:10 
1 1:0.0016722408 2:0.20412415 3:0.17468726 4:2 5:0.18898224 6:6 
1 1:0.011705686 2:0.20412415 3:0.12707131 4:2 5:0 6:27 
0.6509559094496739 1:0.0016722408 2:0 3:0.10057279 4:2 5:0.50709255 6:22 
1 1:0.051839465 2:0.18257419 3:0.16515232 4:1 5:0 6:28 
1 1:0.06187291 2:0 3:0.067236862 4:4 5:0.51639778 6:23 
0.7242395283114382 1:0.051839465 2:0 3:0.10031008 4:9 5:0.25819889 6:89 
1 1:0.0016722408 2:0 3:0.084515425 4:15 5:0 6:12 
1 1:0.0016722408 2:0 3:0.061512469 4:3 5:0 6:1 
1 1:0.0050167224 2:0 3:0.016736548 4:8 5:0 6:2 
1 1:0.0050167224 2:0 3:0.03380617 4:2 5:0 6:11 
1 1:0.027272727 2:0 3:0 4:2 5:0 6:21 
0.4697308039467119 1:0.024242424 2:0 3:0.073323558 4:11 5:0 6:138 
1 1:0.003030303 2:0 3:0 4:1 5:0 6:6 
1 1:0.0090909091 2:0 3:0 4:1 5:0 6:14 
1 1:0.00030257186 2:0 3:0 4:17 5:0 6:59 
0.2436936164286946 1:0.033888048 2:0.4472136 3:0 4:15 5:0 6:461 
1 1:0.031467474 2:0.35355339 3:0 4:5 5:0 6:68 
1 1:0.002118003 2:0.20412415 3:0.12457457 4:1 5:0.40824829 6:9 
1 1:0.0060160428 2:0 3:0 4:10 5:0 6:26 
0.4275827841870864 1:0.0006684492 2:0 3:0.14401646 4:10 5:0 6:370 
0.4140132711212523 1:0.0013368984 2:0 3:0.071499332 4:8 5:0 6:858 
1 1:0.0020053476 2:0.13608276 3:0.16867477 4:6 5:0 6:21 
1 1:0.014705882 2:0.1490712 3:0.16247248 4:6 5:0 6:5 
1 1:0.0013368984 2:0.10050378 3:0.15214515 4:6 5:0 6:4 
1 1:0.0006684492 2:0.23570226 3:0.20161946 4:6 5:0 6:6 
1 1:0.014705882 2:0.59628479 3:0.13608276 4:5 5:0 6:2 
0.2685806570229604 1:0.0040106952 2:0.086066297 3:0 4:6 5:0 6:2212 
1 1:0.037433155 2:0 3:0.13250773 4:4 5:0 6:7 
1 1:0.0006684492 2:0 3:0.07991055 4:3 5:0 6:5 
1 1:0.086229947 2:0.40824829 3:0.18934585 4:3 5:0 6:5 
1 1:0.037433155 2:0 3:0.15383229 4:2 5:0 6:14 
1 1:0.0013368984 2:0 3:0.10930431 4:2 5:0 6:1 
1 1:0.0006684492 2:0 3:0.06780635 4:2 5:0 6:3 
0.6483122976074368 1:0.1468254 2:0 3:0.15099351 4:15 5:0 6:145 
